<?xml version="1.0" encoding="UTF-8"?>
<!-- This network was created in GeNIe Academic, which can be used for academic teaching and research purposes only -->
<smile version="1.0" id="Network2" numsamples="10000" discsamples="10000">
	<nodes>
		<cpt id="xst">
			<state id="A" />
			<state id="B" />
			<state id="C" />
			<state id="D" />
			<state id="E" />
			<state id="F" />
			<state id="G" />
			<state id="H" />
			<state id="I" />
			<state id="J" />
			<state id="K" />
			<state id="L" />
			<state id="M" />
			<state id="N" />
			<state id="O" />
			<state id="P" />
			<state id="Q" />
			<state id="R" />
			<state id="S" />
			<state id="T" />
			<state id="U" />
			<state id="V" />
			<state id="W" />
			<state id="X" />
			<state id="Y" />
			<state id="Z" />
			<probabilities>0.0583075455399809 0.06919391814110447 0.01660355649845714 0.0411550503154148 0.03682547559425415 0.0553843814807255 0.04547663841839978 0.05203866089873661 0.01534711559007563 0.0154884223839561 0.07491299795629067 0.05273137824780587 0.05580422332168559 0.02399427523668439 0.01674182961964145 0.05705406147074429 0.005444821411025326 0.05231291696277683 0.09319211333208906 0.05832088354896333 0.01451032905586777 0.0135350266805954 0.04074069715088523 0.0007027195400694236 0.001818515577866264 0.03236244602590387</probabilities>
		</cpt>
		<cpt id="xrd">
			<state id="A" />
			<state id="B" />
			<state id="C" />
			<state id="D" />
			<state id="E" />
			<state id="F" />
			<state id="G" />
			<state id="H" />
			<state id="I" />
			<state id="J" />
			<state id="K" />
			<state id="L" />
			<state id="M" />
			<state id="N" />
			<state id="O" />
			<state id="P" />
			<state id="Q" />
			<state id="R" />
			<state id="S" />
			<state id="T" />
			<state id="U" />
			<state id="V" />
			<state id="W" />
			<state id="X" />
			<state id="Y" />
			<state id="Z" />
			<probabilities>0.06987984121875336 0.03068876729964596 0.03515180774595 0.03361763759253299 0.0744823516790044 0.01925222615599185 0.04087007831777707 0.04170689840145907 0.07071666130243537 0.003352644566033687 0.0244126166720309 0.08089797232056646 0.03710438794120802 0.07350606158137539 0.034593927690162 0.03515180774595 0.0002843042591996567 0.09149769338053856 0.0545381396845832 0.06039588027035726 0.05328290955906019 0.007397274970496728 0.004189464649715696 0.01032614526338376 0.004049994635768695 0.00865250509601974</probabilities>
		</cpt>
		<cpt id="xnd">
			<state id="A" />
			<state id="B" />
			<state id="C" />
			<state id="D" />
			<state id="E" />
			<state id="F" />
			<state id="G" />
			<state id="H" />
			<state id="I" />
			<state id="J" />
			<state id="K" />
			<state id="L" />
			<state id="M" />
			<state id="N" />
			<state id="O" />
			<state id="P" />
			<state id="Q" />
			<state id="R" />
			<state id="S" />
			<state id="T" />
			<state id="U" />
			<state id="V" />
			<state id="W" />
			<state id="X" />
			<state id="Y" />
			<state id="Z" />
			<parents>xst xrd</parents>
			<probabilities>0.001479289940828403 0.2707100591715976 0.001479289940828403 0.001479289940828403 0.001479289940828403 0.001479289940828403 0.07840236686390532 0.001479289940828403 0.001479289940828403 0.001479289940828403 0.001479289940828403 0.2322485207100592 0.03994082840236687 0.07840236686390532 0.001479289940828403 0.03994082840236687 0.001479289940828403 0.03994082840236687 0.03994082840236687 0.001479289940828403 0.001479289940828403 0.07840236686390532 0.07840236686390532 0.001479289940828403 0.001479289940828403 0.001479289940828403 0.001672240802675585 0.2190635451505017 0.001672240802675585 0.001672240802675585 0.001672240802675585 0.001672240802675585 0.001672240802675585 0.001672240802675585 0.001672240802675585 0.001672240802675585 0.001672240802675585 0.2625418060200669 0.2625418060200669 0.2190635451505017 0.001672240802675585 0.001672240802675585 0.001672240802675585 0.001672240802675585 0.001672240802675585 0.001672240802675585 0.001672240802675585 0.001672240802675585 0.001672240802675585 0.001672240802675585 0.001672240802675585 0.001672240802675585 0.006410256410256411 0.006410256410256411 0.006410256410256411 0.006410256410256411 0.006410256410256411 0.006410256410256411 0.006410256410256411 0.006410256410256411 0.006410256410256411 0.006410256410256411 0.006410256410256411 0.006410256410256411 0.006410256410256411 0.006410256410256411 0.006410256410256411 0.006410256410256411 0.006410256410256411 0.3397435897435898 0.5064102564102565 0.006410256410256411 0.006410256410256411 0.006410256410256411 0.006410256410256411 0.006410256410256411 0.006410256410256411 0.006410256410256411 0.004273504273504275 0.004273504273504275 0.004273504273504275 0.2264957264957265 0.004273504273504275 0.004273504273504275 0.004273504273504275 0.004273504273504275 0.1153846153846154 0.004273504273504275 0.004273504273504275 0.004273504273504275 0.004273504273504275 0.3376068376068377 0.004273504273504275 0.004273504273504275 0.004273504273504275 0.004273504273504275 0.004273504273504275 0.004273504273504275 0.2264957264957265 0.004273504273504275 0.004273504273504275 0.004273504273504275 0.004273504273504275 0.004273504273504275 0.001131221719457014 0.2364253393665158 0.001131221719457014 0.1776018099547511 0.001131221719457014 0.001131221719457014 0.05995475113122171 0.001131221719457014 0.001131221719457014 0.001131221719457014 0.001131221719457014 0.03054298642533937 0.03054298642533937 0.05995475113122171 0.001131221719457014 0.1481900452488688 0.001131221719457014 0.05995475113122171 0.05995475113122171 0.03054298642533937 0.001131221719457014 0.03054298642533937 0.001131221719457014 0.05995475113122171 0.001131221719457014 0.001131221719457014 0.003496503496503497 0.1853146853146853 0.003496503496503497 0.003496503496503497 0.003496503496503497 0.3671328671328671 0.003496503496503497 0.003496503496503497 0.003496503496503497 0.003496503496503497 0.003496503496503497 0.003496503496503497 0.003496503496503497 0.1853146853146853 0.003496503496503497 0.09440559440559441 0.003496503496503497 0.003496503496503497 0.003496503496503497 0.003496503496503497 0.09440559440559441 0.003496503496503497 0.003496503496503497 0.003496503496503497 0.003496503496503497 0.003496503496503497 0.001538461538461538 0.1615384615384615 0.001538461538461538 0.001538461538461538 0.001538461538461538 0.001538461538461538 0.04153846153846153 0.001538461538461538 0.001538461538461538 0.001538461538461538 0.001538461538461538 0.04153846153846153 0.001538461538461538 0.2815384615384615 0.001538461538461538 0.001538461538461538 0.001538461538461538 0.2815384615384615 0.001538461538461538 0.001538461538461538 0.1615384615384615 0.001538461538461538 0.001538461538461538 0.001538461538461538 0.001538461538461538 0.001538461538461538 0.001672240802675585 0.3494983277591973 0.2190635451505016 0.001672240802675585 0.001672240802675585 0.001672240802675585 0.001672240802675585 0.001672240802675585 0.001672240802675585 0.001672240802675585 0.001672240802675585 0.001672240802675585 0.001672240802675585 0.3494983277591973 0.001672240802675585 0.0451505016722408 0.001672240802675585 0.001672240802675585 0.001672240802675585 0.001672240802675585 0.001672240802675585 0.001672240802675585 0.001672240802675585 0.001672240802675585 0.001672240802675585 0.001672240802675585 0.001373626373626374 0.03708791208791209 0.03708791208791209 0.03708791208791209 0.001373626373626374 0.001373626373626374 0.1442307692307692 0.001373626373626374 0.001373626373626374 0.001373626373626374 0.001373626373626374 0.1085164835164835 0.1085164835164835 0.1442307692307692 0.001373626373626374 0.001373626373626374 0.001373626373626374 0.1085164835164835 0.03708791208791209 0.001373626373626374 0.001373626373626374 0.07280219780219779 0.001373626373626374 0.07280219780219779 0.001373626373626374 0.07280219780219779 0.01923076923076922 0.5192307692307691 0.01923076923076922 0.01923076923076922 0.01923076923076922 0.01923076923076922 0.01923076923076922 0.01923076923076922 0.01923076923076922 0.01923076923076922 0.01923076923076922 0.01923076923076922 0.01923076923076922 0.01923076923076922 0.01923076923076922 0.01923076923076922 0.01923076923076922 0.01923076923076922 0.01923076923076922 0.01923076923076922 0.01923076923076922 0.01923076923076922 0.01923076923076922 0.01923076923076922 0.01923076923076922 0.01923076923076922 0.002262443438914027 0.06108597285067874 0.1787330316742081 0.002262443438914027 0.002262443438914027 0.002262443438914027 0.002262443438914027 0.002262443438914027 0.002262443438914027 0.002262443438914027 0.06108597285067874 0.2375565610859728 0.002262443438914027 0.2375565610859728 0.002262443438914027 0.002262443438914027 0.002262443438914027 0.1199095022624434 0.06108597285067874 0.002262443438914027 0.002262443438914027 0.002262443438914027 0.002262443438914027 0.002262443438914027 0.002262443438914027 0.002262443438914027 0.1097885609795373 0.190091824201569 0.001038753137713492 0.05505391629881507 0.001038753137713492 0.001038753137713492 0.001038753137713492 0.02804633471826428 0.001038753137713492 0.001038753137713492 0.001038753137713492 0.2711145689432214 0.001038753137713492 0.190091824201569 0.001038753137713492 0.001038753137713492 0.001038753137713492 0.001038753137713492 0.001038753137713492 0.02804633471826428 0.1090690794599166 0.001038753137713492 0.001038753137713492 0.001038753137713492 0.001038753137713492 0.001038753137713492 0.001602564102564103 0.04326923076923077 0.001602564102564103 0.001602564102564103 0.001602564102564103 0.001602564102564103 0.001602564102564103 0.1682692307692308 0.001602564102564103 0.001602564102564103 0.001602564102564103 0.2099358974358974 0.08493589743589743 0.08493589743589743 0.001602564102564103 0.001602564102564103 0.001602564102564103 0.2516025641025641 0.001602564102564103 0.1266025641025641 0.001602564102564103 0.001602564102564103 0.001602564102564103 0.001602564102564103 0.001602564102564103 0.001602564102564103 0.002564102564102565 0.06923076923076925 0.002564102564102565 0.002564102564102565 0.002564102564102565 0.002564102564102565 0.06923076923076925 0.4692307692307693 0.06923076923076925 0.002564102564102565 0.06923076923076925 0.002564102564102565 0.002564102564102565 0.1358974358974359 0.002564102564102565 0.06923076923076925 0.002564102564102565 0.002564102564102565 0.002564102564102565 0.002564102564102565 0.002564102564102565 0.002564102564102565 0.002564102564102565 0.002564102564102565 0.002564102564102565 0.002564102564102565 0.001923076923076923 0.05192307692307692 0.001923076923076923 0.001923076923076923 0.001923076923076923 0.001923076923076923 0.1519230769230769 0.05192307692307692 0.001923076923076923 0.001923076923076923 0.001923076923076923 0.1019230769230769 0.05192307692307692 0.05192307692307692 0.001923076923076923 0.05192307692307692 0.001923076923076923 0.1519230769230769 0.001923076923076923 0.2019230769230769 0.001923076923076923 0.001923076923076923 0.001923076923076923 0.1019230769230769 0.001923076923076923 0.001923076923076923 0.003846153846153846 0.003846153846153846 0.003846153846153846 0.003846153846153846 0.003846153846153846 0.003846153846153846 0.003846153846153846 0.003846153846153846 0.003846153846153846 0.003846153846153846 0.003846153846153846 0.7038461538461539 0.1038461538461539 0.003846153846153846 0.003846153846153846 0.003846153846153846 0.003846153846153846 0.003846153846153846 0.1038461538461539 0.003846153846153846 0.003846153846153846 0.003846153846153846 0.003846153846153846 0.003846153846153846 0.003846153846153846 0.003846153846153846 0.03846153846153846 0.03846153846153846 0.03846153846153846 0.03846153846153846 0.03846153846153846 0.03846153846153846 0.03846153846153846 0.03846153846153846 0.03846153846153846 0.03846153846153846 0.03846153846153846 0.03846153846153846 0.03846153846153846 0.03846153846153846 0.03846153846153846 0.03846153846153846 0.03846153846153846 0.03846153846153846 0.03846153846153846 0.03846153846153846 0.03846153846153846 0.03846153846153846 0.03846153846153846 0.03846153846153846 0.03846153846153846 0.03846153846153846 0.07029177718832891 0.1047745358090186 0.07029177718832891 0.07029177718832891 0.03580901856763926 0.001326259946949602 0.001326259946949602 0.001326259946949602 0.001326259946949602 0.001326259946949602 0.001326259946949602 0.001326259946949602 0.001326259946949602 0.1737400530503979 0.03580901856763926 0.1737400530503979 0.001326259946949602 0.07029177718832891 0.001326259946949602 0.001326259946949602 0.1392572944297082 0.001326259946949602 0.001326259946949602 0.001326259946949602 0.03580901856763926 0.001326259946949602 0.1947890818858561 0.130272952853598 0.001240694789081886 0.001240694789081886 0.001240694789081886 0.001240694789081886 0.001240694789081886 0.001240694789081886 0.001240694789081886 0.001240694789081886 0.001240694789081886 0.001240694789081886 0.03349875930521092 0.1947890818858561 0.001240694789081886 0.03349875930521092 0.001240694789081886 0.09801488833746898 0.1947890818858561 0.001240694789081886 0.09801488833746898 0.001240694789081886 0.001240694789081886 0.001240694789081886 0.001240694789081886 0.001240694789081886 0.0008741258741258742 0.159965034965035 0.0008741258741258742 0.0008741258741258742 0.0008741258741258742 0.0236013986013986 0.0008741258741258742 0.0008741258741258742 0.0236013986013986 0.0008741258741258742 0.1145104895104895 0.159965034965035 0.06905594405594405 0.159965034965035 0.0008741258741258742 0.0008741258741258742 0.0008741258741258742 0.09178321678321678 0.1372377622377622 0.0008741258741258742 0.04632867132867133 0.0008741258741258742 0.0008741258741258742 0.0008741258741258742 0.0008741258741258742 0.0008741258741258742 0.005494505494505495 0.005494505494505495 0.005494505494505495 0.1483516483516484 0.005494505494505495 0.005494505494505495 0.005494505494505495 0.005494505494505495 0.005494505494505495 0.005494505494505495 0.2912087912087912 0.005494505494505495 0.005494505494505495 0.005494505494505495 0.005494505494505495 0.005494505494505495 0.005494505494505495 0.005494505494505495 0.005494505494505495 0.005494505494505495 0.005494505494505495 0.005494505494505495 0.005494505494505495 0.005494505494505495 0.005494505494505495 0.434065934065934 0.01923076923076923 0.01923076923076923 0.01923076923076923 0.01923076923076923 0.01923076923076923 0.01923076923076923 0.01923076923076923 0.01923076923076923 0.01923076923076923 0.01923076923076923 0.01923076923076923 0.01923076923076923 0.01923076923076923 0.01923076923076923 0.01923076923076923 0.01923076923076923 0.01923076923076923 0.5192307692307692 0.01923076923076923 0.01923076923076923 0.01923076923076923 0.01923076923076923 0.01923076923076923 0.01923076923076923 0.01923076923076923 0.01923076923076923 0.007692307692307694 0.4076923076923077 0.007692307692307694 0.007692307692307694 0.007692307692307694 0.007692307692307694 0.007692307692307694 0.007692307692307694 0.007692307692307694 0.007692307692307694 0.007692307692307694 0.007692307692307694 0.007692307692307694 0.007692307692307694 0.007692307692307694 0.007692307692307694 0.007692307692307694 0.007692307692307694 0.007692307692307694 0.007692307692307694 0.4076923076923077 0.007692307692307694 0.007692307692307694 0.007692307692307694 0.007692307692307694 0.007692307692307694 0.01923076923076923 0.01923076923076923 0.01923076923076923 0.01923076923076923 0.01923076923076923 0.01923076923076923 0.01923076923076923 0.01923076923076923 0.01923076923076923 0.01923076923076923 0.01923076923076923 0.01923076923076923 0.01923076923076923 0.01923076923076923 0.01923076923076923 0.01923076923076923 0.01923076923076923 0.01923076923076923 0.01923076923076923 0.01923076923076923 0.5192307692307692 0.01923076923076923 0.01923076923076923 0.01923076923076923 0.01923076923076923 0.01923076923076923 0.01282051282051282 0.01282051282051282 0.01282051282051282 0.01282051282051282 0.01282051282051282 0.01282051282051282 0.01282051282051282 0.01282051282051282 0.01282051282051282 0.01282051282051282 0.01282051282051282 0.01282051282051282 0.01282051282051282 0.01282051282051282 0.01282051282051282 0.01282051282051282 0.01282051282051282 0.01282051282051282 0.6794871794871795 0.01282051282051282 0.01282051282051282 0.01282051282051282 0.01282051282051282 0.01282051282051282 0.01282051282051282 0.01282051282051282 0.003846153846153847 0.2038461538461539 0.003846153846153847 0.003846153846153847 0.003846153846153847 0.003846153846153847 0.003846153846153847 0.003846153846153847 0.003846153846153847 0.003846153846153847 0.003846153846153847 0.003846153846153847 0.003846153846153847 0.2038461538461539 0.003846153846153847 0.003846153846153847 0.003846153846153847 0.1038461538461539 0.003846153846153847 0.4038461538461539 0.003846153846153847 0.003846153846153847 0.003846153846153847 0.003846153846153847 0.003846153846153847 0.003846153846153847 0.02662721893491124 0.0009861932938856014 0.0009861932938856014 0.0009861932938856014 0.1291913214990138 0.0009861932938856014 0.0009861932938856014 0.0009861932938856014 0.0009861932938856014 0.0009861932938856014 0.0009861932938856014 0.4625246548323471 0.0009861932938856014 0.0009861932938856014 0.02662721893491124 0.0009861932938856014 0.0009861932938856014 0.3343195266272189 0.0009861932938856014 0.0009861932938856014 0.0009861932938856014 0.0009861932938856014 0.0009861932938856014 0.0009861932938856014 0.0009861932938856014 0.0009861932938856014 0.05465587044534413 0.002024291497975709 0.002024291497975709 0.002024291497975709 0.3704453441295547 0.002024291497975709 0.002024291497975709 0.002024291497975709 0.159919028340081 0.002024291497975709 0.002024291497975709 0.002024291497975709 0.002024291497975709 0.002024291497975709 0.2125506072874494 0.002024291497975709 0.002024291497975709 0.002024291497975709 0.002024291497975709 0.002024291497975709 0.159919028340081 0.002024291497975709 0.002024291497975709 0.002024291497975709 0.002024291497975709 0.002024291497975709 0.4313186813186814 0.002747252747252748 0.002747252747252748 0.002747252747252748 0.002747252747252748 0.002747252747252748 0.002747252747252748 0.002747252747252748 0.002747252747252748 0.002747252747252748 0.002747252747252748 0.002747252747252748 0.002747252747252748 0.002747252747252748 0.2884615384615385 0.002747252747252748 0.002747252747252748 0.002747252747252748 0.002747252747252748 0.002747252747252748 0.2170329670329671 0.002747252747252748 0.002747252747252748 0.002747252747252748 0.002747252747252748 0.002747252747252748 0.2884615384615385 0.002747252747252748 0.002747252747252748 0.002747252747252748 0.07417582417582419 0.002747252747252748 0.002747252747252748 0.002747252747252748 0.1456043956043956 0.002747252747252748 0.002747252747252748 0.002747252747252748 0.002747252747252748 0.002747252747252748 0.2170329670329671 0.002747252747252748 0.002747252747252748 0.002747252747252748 0.002747252747252748 0.002747252747252748 0.2170329670329671 0.002747252747252748 0.002747252747252748 0.002747252747252748 0.002747252747252748 0.002747252747252748 0.0008547008547008548 0.0008547008547008548 0.0008547008547008548 0.0008547008547008548 0.2230769230769231 0.0008547008547008548 0.0008547008547008548 0.0008547008547008548 0.2008547008547009 0.0008547008547008548 0.0008547008547008548 0.2675213675213675 0.0008547008547008548 0.0008547008547008548 0.0008547008547008548 0.0008547008547008548 0.0008547008547008548 0.2897435897435898 0.0008547008547008548 0.0008547008547008548 0.0008547008547008548 0.0008547008547008548 0.0008547008547008548 0.0008547008547008548 0.0008547008547008548 0.0008547008547008548 0.1730769230769231 0.006410256410256411 0.006410256410256411 0.006410256410256411 0.1730769230769231 0.006410256410256411 0.006410256410256411 0.006410256410256411 0.006410256410256411 0.006410256410256411 0.006410256410256411 0.006410256410256411 0.006410256410256411 0.006410256410256411 0.006410256410256411 0.006410256410256411 0.006410256410256411 0.006410256410256411 0.006410256410256411 0.006410256410256411 0.5064102564102565 0.006410256410256411 0.006410256410256411 0.006410256410256411 0.006410256410256411 0.006410256410256411 0.1446886446886447 0.001831501831501832 0.001831501831501832 0.001831501831501832 0.2875457875457875 0.001831501831501832 0.001831501831501832 0.001831501831501832 0.09706959706959706 0.001831501831501832 0.001831501831501832 0.001831501831501832 0.001831501831501832 0.001831501831501832 0.2875457875457875 0.001831501831501832 0.001831501831501832 0.001831501831501832 0.001831501831501832 0.001831501831501832 0.1446886446886447 0.001831501831501832 0.001831501831501832 0.001831501831501832 0.001831501831501832 0.001831501831501832 0.1866096866096866 0.001424501424501425 0.001424501424501425 0.001424501424501425 0.2606837606837606 0.001424501424501425 0.001424501424501425 0.001424501424501425 0.001424501424501425 0.001424501424501425 0.001424501424501425 0.001424501424501425 0.001424501424501425 0.001424501424501425 0.2236467236467236 0.001424501424501425 0.001424501424501425 0.001424501424501425 0.001424501424501425 0.001424501424501425 0.2977207977207977 0.001424501424501425 0.001424501424501425 0.001424501424501425 0.001424501424501425 0.001424501424501425 0.02967032967032967 0.001098901098901099 0.001098901098901099 0.001098901098901099 0.4296703296703296 0.001098901098901099 0.001098901098901099 0.001098901098901099 0.001098901098901099 0.001098901098901099 0.001098901098901099 0.2296703296703296 0.001098901098901099 0.001098901098901099 0.001098901098901099 0.001098901098901099 0.001098901098901099 0.2868131868131867 0.001098901098901099 0.001098901098901099 0.001098901098901099 0.001098901098901099 0.001098901098901099 0.001098901098901099 0.001098901098901099 0.001098901098901099 0.005494505494505497 0.005494505494505497 0.005494505494505497 0.005494505494505497 0.2912087912087913 0.005494505494505497 0.005494505494505497 0.005494505494505497 0.1483516483516484 0.005494505494505497 0.005494505494505497 0.005494505494505497 0.005494505494505497 0.005494505494505497 0.4340659340659342 0.005494505494505497 0.005494505494505497 0.005494505494505497 0.005494505494505497 0.005494505494505497 0.005494505494505497 0.005494505494505497 0.005494505494505497 0.005494505494505497 0.005494505494505497 0.005494505494505497 0.2692307692307693 0.002564102564102565 0.002564102564102565 0.002564102564102565 0.06923076923076925 0.002564102564102565 0.002564102564102565 0.002564102564102565 0.4025641025641026 0.002564102564102565 0.002564102564102565 0.002564102564102565 0.002564102564102565 0.002564102564102565 0.002564102564102565 0.002564102564102565 0.002564102564102565 0.002564102564102565 0.002564102564102565 0.002564102564102565 0.2025641025641026 0.002564102564102565 0.002564102564102565 0.002564102564102565 0.002564102564102565 0.002564102564102565 0.2845405187370534 0.0009841258339242731 0.0009841258339242731 0.0009841258339242731 0.3336186577003286 0.0009841258339242731 0.0009841258339242731 0.0009841258339242731 0.1289204842440798 0.0009841258339242731 0.0009841258339242731 0.0009841258339242731 0.0009841258339242731 0.0009841258339242731 0.1289204842440798 0.0009841258339242731 0.0009841258339242731 0.0009841258339242731 0.0009841258339242731 0.0009841258339242731 0.1033332125620487 0.0009841258339242731 0.0009841258339242731 0.0009841258339242731 0.0009841258339242731 0.0009841258339242731 0.1038461538461539 0.003846153846153847 0.003846153846153847 0.003846153846153847 0.2038461538461539 0.003846153846153847 0.003846153846153847 0.003846153846153847 0.2038461538461539 0.003846153846153847 0.003846153846153847 0.003846153846153847 0.003846153846153847 0.003846153846153847 0.2038461538461539 0.003846153846153847 0.003846153846153847 0.003846153846153847 0.003846153846153847 0.003846153846153847 0.2038461538461539 0.003846153846153847 0.003846153846153847 0.003846153846153847 0.003846153846153847 0.003846153846153847 0.3759615384615383 0.0009615384615384614 0.0009615384615384614 0.0009615384615384614 0.1259615384615384 0.0009615384615384614 0.0009615384615384614 0.0009615384615384614 0.1509615384615384 0.0009615384615384614 0.0009615384615384614 0.0009615384615384614 0.0009615384615384614 0.0009615384615384614 0.1759615384615384 0.0009615384615384614 0.0009615384615384614 0.0009615384615384614 0.0009615384615384614 0.0009615384615384614 0.1509615384615384 0.0009615384615384614 0.0009615384615384614 0.0009615384615384614 0.0009615384615384614 0.0009615384615384614 0.002403846153846154 0.002403846153846154 0.002403846153846154 0.002403846153846154 0.002403846153846154 0.002403846153846154 0.002403846153846154 0.002403846153846154 0.002403846153846154 0.002403846153846154 0.002403846153846154 0.3774038461538463 0.002403846153846154 0.002403846153846154 0.3149038461538462 0.002403846153846154 0.002403846153846154 0.2524038461538462 0.002403846153846154 0.002403846153846154 0.002403846153846154 0.002403846153846154 0.002403846153846154 0.002403846153846154 0.002403846153846154 0.002403846153846154 0.03846153846153846 0.03846153846153846 0.03846153846153846 0.03846153846153846 0.03846153846153846 0.03846153846153846 0.03846153846153846 0.03846153846153846 0.03846153846153846 0.03846153846153846 0.03846153846153846 0.03846153846153846 0.03846153846153846 0.03846153846153846 0.03846153846153846 0.03846153846153846 0.03846153846153846 0.03846153846153846 0.03846153846153846 0.03846153846153846 0.03846153846153846 0.03846153846153846 0.03846153846153846 0.03846153846153846 0.03846153846153846 0.03846153846153846 0.03846153846153846 0.03846153846153846 0.03846153846153846 0.03846153846153846 0.03846153846153846 0.03846153846153846 0.03846153846153846 0.03846153846153846 0.03846153846153846 0.03846153846153846 0.03846153846153846 0.03846153846153846 0.03846153846153846 0.03846153846153846 0.03846153846153846 0.03846153846153846 0.03846153846153846 0.03846153846153846 0.03846153846153846 0.03846153846153846 0.03846153846153846 0.03846153846153846 0.03846153846153846 0.03846153846153846 0.03846153846153846 0.03846153846153846 0.3592162554426705 0.0007256894049346878 0.0007256894049346878 0.0007256894049346878 0.2082728592162554 0.0007256894049346878 0.0007256894049346878 0.0007256894049346878 0.0950653120464441 0.0007256894049346878 0.0007256894049346878 0.0007256894049346878 0.0007256894049346878 0.0007256894049346878 0.2271407837445573 0.0007256894049346878 0.0007256894049346878 0.0007256894049346878 0.0007256894049346878 0.0007256894049346878 0.0950653120464441 0.0007256894049346878 0.0007256894049346878 0.0007256894049346878 0.0007256894049346878 0.0007256894049346878 0.3449519230769231 0.001201923076923077 0.001201923076923077 0.001201923076923077 0.2512019230769231 0.001201923076923077 0.001201923076923077 0.001201923076923077 0.1887019230769231 0.001201923076923077 0.001201923076923077 0.001201923076923077 0.001201923076923077 0.001201923076923077 0.03245192307692308 0.001201923076923077 0.001201923076923077 0.001201923076923077 0.001201923076923077 0.001201923076923077 0.1574519230769231 0.001201923076923077 0.001201923076923077 0.001201923076923077 0.001201923076923077 0.001201923076923077 0.1223776223776224 0.001165501165501166 0.001165501165501166 0.001165501165501166 0.4254079254079254 0.001165501165501166 0.001165501165501166 0.001165501165501166 0.03146853146853147 0.001165501165501166 0.001165501165501166 0.001165501165501166 0.001165501165501166 0.001165501165501166 0.2132867132867133 0.001165501165501166 0.001165501165501166 0.001165501165501166 0.001165501165501166 0.001165501165501166 0.1526806526806527 0.001165501165501166 0.001165501165501166 0.001165501165501166 0.03146853146853147 0.001165501165501166 0.395104895104895 0.001165501165501165 0.001165501165501165 0.001165501165501165 0.1829836829836829 0.001165501165501165 0.001165501165501165 0.001165501165501165 0.001165501165501165 0.001165501165501165 0.001165501165501165 0.2435897435897435 0.001165501165501165 0.001165501165501165 0.03146853146853146 0.001165501165501165 0.001165501165501165 0.1223776223776224 0.001165501165501165 0.001165501165501165 0.001165501165501165 0.001165501165501165 0.001165501165501165 0.001165501165501165 0.001165501165501165 0.001165501165501165 0.01923076923076922 0.01923076923076922 0.01923076923076922 0.01923076923076922 0.5192307692307691 0.01923076923076922 0.01923076923076922 0.01923076923076922 0.01923076923076922 0.01923076923076922 0.01923076923076922 0.01923076923076922 0.01923076923076922 0.01923076923076922 0.01923076923076922 0.01923076923076922 0.01923076923076922 0.01923076923076922 0.01923076923076922 0.01923076923076922 0.01923076923076922 0.01923076923076922 0.01923076923076922 0.01923076923076922 0.01923076923076922 0.01923076923076922 0.006410256410256413 0.006410256410256413 0.006410256410256413 0.006410256410256413 0.3397435897435898 0.006410256410256413 0.006410256410256413 0.006410256410256413 0.1730769230769231 0.006410256410256413 0.006410256410256413 0.006410256410256413 0.006410256410256413 0.006410256410256413 0.3397435897435898 0.006410256410256413 0.006410256410256413 0.006410256410256413 0.006410256410256413 0.006410256410256413 0.006410256410256413 0.006410256410256413 0.006410256410256413 0.006410256410256413 0.006410256410256413 0.006410256410256413 0.006410256410256411 0.006410256410256411 0.006410256410256411 0.006410256410256411 0.006410256410256411 0.006410256410256411 0.006410256410256411 0.006410256410256411 0.006410256410256411 0.006410256410256411 0.006410256410256411 0.006410256410256411 0.006410256410256411 0.006410256410256411 0.6730769230769231 0.006410256410256411 0.006410256410256411 0.006410256410256411 0.006410256410256411 0.006410256410256411 0.1730769230769231 0.006410256410256411 0.006410256410256411 0.006410256410256411 0.006410256410256411 0.006410256410256411 0.3461538461538462 0.01282051282051282 0.01282051282051282 0.01282051282051282 0.3461538461538462 0.01282051282051282 0.01282051282051282 0.01282051282051282 0.01282051282051282 0.01282051282051282 0.01282051282051282 0.01282051282051282 0.01282051282051282 0.01282051282051282 0.01282051282051282 0.01282051282051282 0.01282051282051282 0.01282051282051282 0.01282051282051282 0.01282051282051282 0.01282051282051282 0.01282051282051282 0.01282051282051282 0.01282051282051282 0.01282051282051282 0.01282051282051282 0.4076923076923077 0.007692307692307694 0.007692307692307694 0.007692307692307694 0.4076923076923077 0.007692307692307694 0.007692307692307694 0.007692307692307694 0.007692307692307694 0.007692307692307694 0.007692307692307694 0.007692307692307694 0.007692307692307694 0.007692307692307694 0.007692307692307694 0.007692307692307694 0.007692307692307694 0.007692307692307694 0.007692307692307694 0.007692307692307694 0.007692307692307694 0.007692307692307694 0.007692307692307694 0.007692307692307694 0.007692307692307694 0.007692307692307694 0.001923076923076923 0.001923076923076923 0.001923076923076923 0.001923076923076923 0.001923076923076923 0.001923076923076923 0.001923076923076923 0.4019230769230769 0.001923076923076923 0.001923076923076923 0.001923076923076923 0.2019230769230769 0.001923076923076923 0.001923076923076923 0.1019230769230769 0.001923076923076923 0.001923076923076923 0.2019230769230769 0.001923076923076923 0.001923076923076923 0.001923076923076923 0.001923076923076923 0.001923076923076923 0.001923076923076923 0.05192307692307693 0.001923076923076923 0.3461538461538461 0.01282051282051282 0.01282051282051282 0.01282051282051282 0.01282051282051282 0.01282051282051282 0.01282051282051282 0.01282051282051282 0.01282051282051282 0.01282051282051282 0.01282051282051282 0.01282051282051282 0.01282051282051282 0.01282051282051282 0.3461538461538461 0.01282051282051282 0.01282051282051282 0.01282051282051282 0.01282051282051282 0.01282051282051282 0.01282051282051282 0.01282051282051282 0.01282051282051282 0.01282051282051282 0.01282051282051282 0.01282051282051282 0.3461538461538461 0.01282051282051282 0.01282051282051282 0.01282051282051282 0.01282051282051282 0.01282051282051282 0.01282051282051282 0.01282051282051282 0.01282051282051282 0.01282051282051282 0.01282051282051282 0.01282051282051282 0.01282051282051282 0.01282051282051282 0.3461538461538461 0.01282051282051282 0.01282051282051282 0.01282051282051282 0.01282051282051282 0.01282051282051282 0.01282051282051282 0.01282051282051282 0.01282051282051282 0.01282051282051282 0.01282051282051282 0.01282051282051282 0.1730769230769231 0.00641025641025641 0.00641025641025641 0.00641025641025641 0.00641025641025641 0.00641025641025641 0.00641025641025641 0.00641025641025641 0.1730769230769231 0.00641025641025641 0.00641025641025641 0.00641025641025641 0.00641025641025641 0.00641025641025641 0.5064102564102564 0.00641025641025641 0.00641025641025641 0.00641025641025641 0.00641025641025641 0.00641025641025641 0.00641025641025641 0.00641025641025641 0.00641025641025641 0.00641025641025641 0.00641025641025641 0.00641025641025641 0.002403846153846154 0.002403846153846154 0.002403846153846154 0.002403846153846154 0.002403846153846154 0.002403846153846154 0.002403846153846154 0.2524038461538462 0.002403846153846154 0.002403846153846154 0.002403846153846154 0.1274038461538462 0.002403846153846154 0.002403846153846154 0.06490384615384617 0.002403846153846154 0.002403846153846154 0.5024038461538463 0.002403846153846154 0.002403846153846154 0.002403846153846154 0.002403846153846154 0.002403846153846154 0.002403846153846154 0.002403846153846154 0.002403846153846154 0.5192307692307691 0.01923076923076922 0.01923076923076922 0.01923076923076922 0.01923076923076922 0.01923076923076922 0.01923076923076922 0.01923076923076922 0.01923076923076922 0.01923076923076922 0.01923076923076922 0.01923076923076922 0.01923076923076922 0.01923076923076922 0.01923076923076922 0.01923076923076922 0.01923076923076922 0.01923076923076922 0.01923076923076922 0.01923076923076922 0.01923076923076922 0.01923076923076922 0.01923076923076922 0.01923076923076922 0.01923076923076922 0.01923076923076922 0.03846153846153846 0.03846153846153846 0.03846153846153846 0.03846153846153846 0.03846153846153846 0.03846153846153846 0.03846153846153846 0.03846153846153846 0.03846153846153846 0.03846153846153846 0.03846153846153846 0.03846153846153846 0.03846153846153846 0.03846153846153846 0.03846153846153846 0.03846153846153846 0.03846153846153846 0.03846153846153846 0.03846153846153846 0.03846153846153846 0.03846153846153846 0.03846153846153846 0.03846153846153846 0.03846153846153846 0.03846153846153846 0.03846153846153846 0.03846153846153846 0.03846153846153846 0.03846153846153846 0.03846153846153846 0.03846153846153846 0.03846153846153846 0.03846153846153846 0.03846153846153846 0.03846153846153846 0.03846153846153846 0.03846153846153846 0.03846153846153846 0.03846153846153846 0.03846153846153846 0.03846153846153846 0.03846153846153846 0.03846153846153846 0.03846153846153846 0.03846153846153846 0.03846153846153846 0.03846153846153846 0.03846153846153846 0.03846153846153846 0.03846153846153846 0.03846153846153846 0.03846153846153846 0.003496503496503497 0.003496503496503497 0.003496503496503497 0.003496503496503497 0.003496503496503497 0.003496503496503497 0.003496503496503497 0.7307692307692308 0.003496503496503497 0.003496503496503497 0.003496503496503497 0.09440559440559443 0.003496503496503497 0.003496503496503497 0.09440559440559443 0.003496503496503497 0.003496503496503497 0.003496503496503497 0.003496503496503497 0.003496503496503497 0.003496503496503497 0.003496503496503497 0.003496503496503497 0.003496503496503497 0.003496503496503497 0.003496503496503497 0.03846153846153846 0.03846153846153846 0.03846153846153846 0.03846153846153846 0.03846153846153846 0.03846153846153846 0.03846153846153846 0.03846153846153846 0.03846153846153846 0.03846153846153846 0.03846153846153846 0.03846153846153846 0.03846153846153846 0.03846153846153846 0.03846153846153846 0.03846153846153846 0.03846153846153846 0.03846153846153846 0.03846153846153846 0.03846153846153846 0.03846153846153846 0.03846153846153846 0.03846153846153846 0.03846153846153846 0.03846153846153846 0.03846153846153846 0.03846153846153846 0.03846153846153846 0.03846153846153846 0.03846153846153846 0.03846153846153846 0.03846153846153846 0.03846153846153846 0.03846153846153846 0.03846153846153846 0.03846153846153846 0.03846153846153846 0.03846153846153846 0.03846153846153846 0.03846153846153846 0.03846153846153846 0.03846153846153846 0.03846153846153846 0.03846153846153846 0.03846153846153846 0.03846153846153846 0.03846153846153846 0.03846153846153846 0.03846153846153846 0.03846153846153846 0.03846153846153846 0.03846153846153846 0.1307897429487902 0.004802266613542596 0.004802266613542596 0.004802266613542596 0.3793790624698651 0.004802266613542596 0.004802266613542596 0.1296611985656501 0.004802266613542596 0.004802266613542596 0.004802266613542596 0.004802266613542596 0.004802266613542596 0.004802266613542596 0.2545201305177576 0.004802266613542596 0.004802266613542596 0.004802266613542596 0.004802266613542596 0.004802266613542596 0.004802266613542596 0.004802266613542596 0.004802266613542596 0.004802266613542596 0.004802266613542596 0.004802266613542596 0.5048076923076924 0.004807692307692309 0.004807692307692309 0.004807692307692309 0.004807692307692309 0.004807692307692309 0.004807692307692309 0.004807692307692309 0.004807692307692309 0.004807692307692309 0.004807692307692309 0.004807692307692309 0.004807692307692309 0.004807692307692309 0.3798076923076924 0.004807692307692309 0.004807692307692309 0.004807692307692309 0.004807692307692309 0.004807692307692309 0.004807692307692309 0.004807692307692309 0.004807692307692309 0.004807692307692309 0.004807692307692309 0.004807692307692309 0.3798076923076924 0.004807692307692309 0.004807692307692309 0.004807692307692309 0.1298076923076923 0.004807692307692309 0.004807692307692309 0.004807692307692309 0.004807692307692309 0.004807692307692309 0.004807692307692309 0.004807692307692309 0.004807692307692309 0.004807692307692309 0.3798076923076924 0.004807692307692309 0.004807692307692309 0.004807692307692309 0.004807692307692309 0.004807692307692309 0.004807692307692309 0.004807692307692309 0.004807692307692309 0.004807692307692309 0.004807692307692309 0.004807692307692309 0.003496503496503497 0.003496503496503497 0.003496503496503497 0.003496503496503497 0.003496503496503497 0.003496503496503497 0.003496503496503497 0.2762237762237762 0.003496503496503497 0.003496503496503497 0.003496503496503497 0.458041958041958 0.003496503496503497 0.003496503496503497 0.09440559440559441 0.003496503496503497 0.003496503496503497 0.09440559440559441 0.003496503496503497 0.003496503496503497 0.003496503496503497 0.003496503496503497 0.003496503496503497 0.003496503496503497 0.003496503496503497 0.003496503496503497 0.6794871794871796 0.01282051282051283 0.01282051282051283 0.01282051282051283 0.01282051282051283 0.01282051282051283 0.01282051282051283 0.01282051282051283 0.01282051282051283 0.01282051282051283 0.01282051282051283 0.01282051282051283 0.01282051282051283 0.01282051282051283 0.01282051282051283 0.01282051282051283 0.01282051282051283 0.01282051282051283 0.01282051282051283 0.01282051282051283 0.01282051282051283 0.01282051282051283 0.01282051282051283 0.01282051282051283 0.01282051282051283 0.01282051282051283 0.03846153846153846 0.03846153846153846 0.03846153846153846 0.03846153846153846 0.03846153846153846 0.03846153846153846 0.03846153846153846 0.03846153846153846 0.03846153846153846 0.03846153846153846 0.03846153846153846 0.03846153846153846 0.03846153846153846 0.03846153846153846 0.03846153846153846 0.03846153846153846 0.03846153846153846 0.03846153846153846 0.03846153846153846 0.03846153846153846 0.03846153846153846 0.03846153846153846 0.03846153846153846 0.03846153846153846 0.03846153846153846 0.03846153846153846 0.1899038461538462 0.002403846153846154 0.002403846153846154 0.002403846153846154 0.002403846153846154 0.002403846153846154 0.002403846153846154 0.06490384615384617 0.1274038461538462 0.002403846153846154 0.002403846153846154 0.002403846153846154 0.002403846153846154 0.002403846153846154 0.3774038461538463 0.002403846153846154 0.002403846153846154 0.002403846153846154 0.002403846153846154 0.002403846153846154 0.1899038461538462 0.002403846153846154 0.002403846153846154 0.002403846153846154 0.002403846153846154 0.002403846153846154 0.7596153846153848 0.009615384615384618 0.009615384615384618 0.009615384615384618 0.009615384615384618 0.009615384615384618 0.009615384615384618 0.009615384615384618 0.009615384615384618 0.009615384615384618 0.009615384615384618 0.009615384615384618 0.009615384615384618 0.009615384615384618 0.009615384615384618 0.009615384615384618 0.009615384615384618 0.009615384615384618 0.009615384615384618 0.009615384615384618 0.009615384615384618 0.009615384615384618 0.009615384615384618 0.009615384615384618 0.009615384615384618 0.009615384615384618 0.2596153846153846 0.009615384615384616 0.009615384615384616 0.009615384615384616 0.009615384615384616 0.009615384615384616 0.009615384615384616 0.009615384615384616 0.2596153846153846 0.009615384615384616 0.009615384615384616 0.009615384615384616 0.009615384615384616 0.009615384615384616 0.009615384615384616 0.009615384615384616 0.009615384615384616 0.009615384615384616 0.009615384615384616 0.009615384615384616 0.2596153846153846 0.009615384615384616 0.009615384615384616 0.009615384615384616 0.009615384615384616 0.009615384615384616 0.1153846153846154 0.004273504273504274 0.004273504273504274 0.004273504273504274 0.004273504273504274 0.004273504273504274 0.004273504273504274 0.004273504273504274 0.004273504273504274 0.004273504273504274 0.004273504273504274 0.2264957264957265 0.004273504273504274 0.004273504273504274 0.5598290598290597 0.004273504273504274 0.004273504273504274 0.004273504273504274 0.004273504273504274 0.004273504273504274 0.004273504273504274 0.004273504273504274 0.004273504273504274 0.004273504273504274 0.004273504273504274 0.004273504273504274 0.009615384615384616 0.009615384615384616 0.009615384615384616 0.009615384615384616 0.009615384615384616 0.009615384615384616 0.009615384615384616 0.009615384615384616 0.2596153846153846 0.009615384615384616 0.009615384615384616 0.009615384615384616 0.009615384615384616 0.009615384615384616 0.2596153846153846 0.009615384615384616 0.009615384615384616 0.009615384615384616 0.009615384615384616 0.009615384615384616 0.2596153846153846 0.009615384615384616 0.009615384615384616 0.009615384615384616 0.009615384615384616 0.009615384615384616 0.03846153846153846 0.03846153846153846 0.03846153846153846 0.03846153846153846 0.03846153846153846 0.03846153846153846 0.03846153846153846 0.03846153846153846 0.03846153846153846 0.03846153846153846 0.03846153846153846 0.03846153846153846 0.03846153846153846 0.03846153846153846 0.03846153846153846 0.03846153846153846 0.03846153846153846 0.03846153846153846 0.03846153846153846 0.03846153846153846 0.03846153846153846 0.03846153846153846 0.03846153846153846 0.03846153846153846 0.03846153846153846 0.03846153846153846 0.03846153846153846 0.03846153846153846 0.03846153846153846 0.03846153846153846 0.03846153846153846 0.03846153846153846 0.03846153846153846 0.03846153846153846 0.03846153846153846 0.03846153846153846 0.03846153846153846 0.03846153846153846 0.03846153846153846 0.03846153846153846 0.03846153846153846 0.03846153846153846 0.03846153846153846 0.03846153846153846 0.03846153846153846 0.03846153846153846 0.03846153846153846 0.03846153846153846 0.03846153846153846 0.03846153846153846 0.03846153846153846 0.03846153846153846 0.03846153846153846 0.03846153846153846 0.03846153846153846 0.03846153846153846 0.03846153846153846 0.03846153846153846 0.03846153846153846 0.03846153846153846 0.03846153846153846 0.03846153846153846 0.03846153846153846 0.03846153846153846 0.03846153846153846 0.03846153846153846 0.03846153846153846 0.03846153846153846 0.03846153846153846 0.03846153846153846 0.03846153846153846 0.03846153846153846 0.03846153846153846 0.03846153846153846 0.03846153846153846 0.03846153846153846 0.03846153846153846 0.03846153846153846 0.03846153846153846 0.03846153846153846 0.03846153846153846 0.03846153846153846 0.03846153846153846 0.03846153846153846 0.03846153846153846 0.03846153846153846 0.03846153846153846 0.03846153846153846 0.03846153846153846 0.03846153846153846 0.03846153846153846 0.03846153846153846 0.03846153846153846 0.03846153846153846 0.03846153846153846 0.03846153846153846 0.03846153846153846 0.03846153846153846 0.03846153846153846 0.03846153846153846 0.03846153846153846 0.03846153846153846 0.03846153846153846 0.03846153846153846 0.002136752136752137 0.002136752136752137 0.002136752136752137 0.002136752136752137 0.1688034188034188 0.002136752136752137 0.002136752136752137 0.002136752136752137 0.002136752136752137 0.002136752136752137 0.002136752136752137 0.002136752136752137 0.002136752136752137 0.002136752136752137 0.002136752136752137 0.002136752136752137 0.002136752136752137 0.5576923076923076 0.002136752136752137 0.002136752136752137 0.1688034188034188 0.002136752136752137 0.0576923076923077 0.002136752136752137 0.002136752136752137 0.002136752136752137 0.2076923076923078 0.007692307692307694 0.007692307692307694 0.007692307692307694 0.4076923076923077 0.007692307692307694 0.007692307692307694 0.007692307692307694 0.007692307692307694 0.007692307692307694 0.007692307692307694 0.007692307692307694 0.007692307692307694 0.007692307692307694 0.2076923076923078 0.007692307692307694 0.007692307692307694 0.007692307692307694 0.007692307692307694 0.007692307692307694 0.007692307692307694 0.007692307692307694 0.007692307692307694 0.007692307692307694 0.007692307692307694 0.007692307692307694 0.2243589743589743 0.002136752136752137 0.002136752136752137 0.002136752136752137 0.1688034188034188 0.002136752136752137 0.002136752136752137 0.002136752136752137 0.1688034188034188 0.002136752136752137 0.002136752136752137 0.002136752136752137 0.002136752136752137 0.002136752136752137 0.2243589743589743 0.002136752136752137 0.002136752136752137 0.002136752136752137 0.002136752136752137 0.002136752136752137 0.1688034188034188 0.002136752136752137 0.002136752136752137 0.002136752136752137 0.002136752136752137 0.002136752136752137 0.4076923076923077 0.007692307692307694 0.007692307692307694 0.007692307692307694 0.007692307692307694 0.007692307692307694 0.007692307692307694 0.007692307692307694 0.007692307692307694 0.007692307692307694 0.007692307692307694 0.007692307692307694 0.007692307692307694 0.007692307692307694 0.007692307692307694 0.007692307692307694 0.007692307692307694 0.007692307692307694 0.007692307692307694 0.007692307692307694 0.4076923076923077 0.007692307692307694 0.007692307692307694 0.007692307692307694 0.007692307692307694 0.007692307692307694 0.001831501831501832 0.001831501831501832 0.001831501831501832 0.001831501831501832 0.04945054945054946 0.001831501831501832 0.001831501831501832 0.001831501831501832 0.3827838827838828 0.001831501831501832 0.001831501831501832 0.001831501831501832 0.001831501831501832 0.001831501831501832 0.001831501831501832 0.001831501831501832 0.001831501831501832 0.3827838827838828 0.001831501831501832 0.001831501831501832 0.09706959706959706 0.001831501831501832 0.04945054945054946 0.001831501831501832 0.001831501831501832 0.001831501831501832 0.009615384615384616 0.009615384615384616 0.009615384615384616 0.009615384615384616 0.009615384615384616 0.009615384615384616 0.009615384615384616 0.009615384615384616 0.009615384615384616 0.009615384615384616 0.009615384615384616 0.009615384615384616 0.009615384615384616 0.009615384615384616 0.009615384615384616 0.009615384615384616 0.009615384615384616 0.009615384615384616 0.009615384615384616 0.009615384615384616 0.7596153846153846 0.009615384615384616 0.009615384615384616 0.009615384615384616 0.009615384615384616 0.009615384615384616 0.005494505494505496 0.005494505494505496 0.005494505494505496 0.005494505494505496 0.1483516483516484 0.005494505494505496 0.005494505494505496 0.005494505494505496 0.2912087912087912 0.005494505494505496 0.005494505494505496 0.005494505494505496 0.005494505494505496 0.005494505494505496 0.4340659340659341 0.005494505494505496 0.005494505494505496 0.005494505494505496 0.005494505494505496 0.005494505494505496 0.005494505494505496 0.005494505494505496 0.005494505494505496 0.005494505494505496 0.005494505494505496 0.005494505494505496 0.4487179487179488 0.004273504273504275 0.004273504273504275 0.004273504273504275 0.2264957264957265 0.004273504273504275 0.004273504273504275 0.004273504273504275 0.004273504273504275 0.004273504273504275 0.004273504273504275 0.004273504273504275 0.004273504273504275 0.004273504273504275 0.2264957264957265 0.004273504273504275 0.004273504273504275 0.004273504273504275 0.004273504273504275 0.004273504273504275 0.004273504273504275 0.004273504273504275 0.004273504273504275 0.004273504273504275 0.004273504273504275 0.004273504273504275 0.1568047337278106 0.002958579881656805 0.002958579881656805 0.002958579881656805 0.3106508875739645 0.002958579881656805 0.002958579881656805 0.002958579881656805 0.002958579881656805 0.002958579881656805 0.002958579881656805 0.002958579881656805 0.002958579881656805 0.002958579881656805 0.002958579881656805 0.002958579881656805 0.002958579881656805 0.4644970414201184 0.002958579881656805 0.002958579881656805 0.002958579881656805 0.002958579881656805 0.002958579881656805 0.002958579881656805 0.002958579881656805 0.002958579881656805 0.03846153846153846 0.03846153846153846 0.03846153846153846 0.03846153846153846 0.03846153846153846 0.03846153846153846 0.03846153846153846 0.03846153846153846 0.03846153846153846 0.03846153846153846 0.03846153846153846 0.03846153846153846 0.03846153846153846 0.03846153846153846 0.03846153846153846 0.03846153846153846 0.03846153846153846 0.03846153846153846 0.03846153846153846 0.03846153846153846 0.03846153846153846 0.03846153846153846 0.03846153846153846 0.03846153846153846 0.03846153846153846 0.03846153846153846 0.09440559440559443 0.003496503496503497 0.003496503496503497 0.003496503496503497 0.3671328671328672 0.003496503496503497 0.003496503496503497 0.003496503496503497 0.09440559440559443 0.003496503496503497 0.003496503496503497 0.003496503496503497 0.003496503496503497 0.003496503496503497 0.1853146853146853 0.003496503496503497 0.003496503496503497 0.003496503496503497 0.003496503496503497 0.003496503496503497 0.1853146853146853 0.003496503496503497 0.003496503496503497 0.003496503496503497 0.003496503496503497 0.003496503496503497 0.2525281826365613 0.001371507921767777 0.001371507921767777 0.001371507921767777 0.1083491258196544 0.001371507921767777 0.001371507921767777 0.001371507921767777 0.1083491258196544 0.001371507921767777 0.001371507921767777 0.001371507921767777 0.001371507921767777 0.001371507921767777 0.4649411854792765 0.001371507921767777 0.001371507921767777 0.001371507921767777 0.001371507921767777 0.001371507921767777 0.03703071388772999 0.001371507921767777 0.001371507921767777 0.001371507921767777 0.001371507921767777 0.001371507921767777 0.2875457875457875 0.001831501831501832 0.001831501831501832 0.001831501831501832 0.1446886446886447 0.001831501831501832 0.001831501831501832 0.001831501831501832 0.1446886446886447 0.001831501831501832 0.001831501831501832 0.001831501831501832 0.001831501831501832 0.001831501831501832 0.1923076923076923 0.001831501831501832 0.001831501831501832 0.001831501831501832 0.001831501831501832 0.001831501831501832 0.1923076923076923 0.001831501831501832 0.001831501831501832 0.001831501831501832 0.001831501831501832 0.001831501831501832 0.1392572944297082 0.001326259946949602 0.001326259946949602 0.001326259946949602 0.1392572944297082 0.001326259946949602 0.001326259946949602 0.001326259946949602 0.3116710875331564 0.001326259946949602 0.001326259946949602 0.001326259946949602 0.001326259946949602 0.001326259946949602 0.1392572944297082 0.001326259946949602 0.001326259946949602 0.001326259946949602 0.001326259946949602 0.001326259946949602 0.2427055702917771 0.001326259946949602 0.001326259946949602 0.001326259946949602 0.001326259946949602 0.001326259946949602 0.004273504273504274 0.004273504273504274 0.004273504273504274 0.004273504273504274 0.004273504273504274 0.004273504273504274 0.004273504273504274 0.004273504273504274 0.1153846153846154 0.004273504273504274 0.004273504273504274 0.004273504273504274 0.004273504273504274 0.004273504273504274 0.1153846153846154 0.004273504273504274 0.004273504273504274 0.6709401709401709 0.004273504273504274 0.004273504273504274 0.004273504273504274 0.004273504273504274 0.004273504273504274 0.004273504273504274 0.004273504273504274 0.004273504273504274 0.002403846153846154 0.002403846153846154 0.002403846153846154 0.002403846153846154 0.2524038461538462 0.002403846153846154 0.002403846153846154 0.002403846153846154 0.1899038461538462 0.002403846153846154 0.002403846153846154 0.002403846153846154 0.002403846153846154 0.002403846153846154 0.3774038461538463 0.002403846153846154 0.002403846153846154 0.002403846153846154 0.002403846153846154 0.002403846153846154 0.1274038461538462 0.002403846153846154 0.002403846153846154 0.002403846153846154 0.002403846153846154 0.002403846153846154 0.03846153846153846 0.03846153846153846 0.03846153846153846 0.03846153846153846 0.03846153846153846 0.03846153846153846 0.03846153846153846 0.03846153846153846 0.03846153846153846 0.03846153846153846 0.03846153846153846 0.03846153846153846 0.03846153846153846 0.03846153846153846 0.03846153846153846 0.03846153846153846 0.03846153846153846 0.03846153846153846 0.03846153846153846 0.03846153846153846 0.03846153846153846 0.03846153846153846 0.03846153846153846 0.03846153846153846 0.03846153846153846 0.03846153846153846 0.4582417582417582 0.001098901098901099 0.001098901098901099 0.001098901098901099 0.1439560439560439 0.001098901098901099 0.001098901098901099 0.001098901098901099 0.05824175824175823 0.001098901098901099 0.001098901098901099 0.001098901098901099 0.001098901098901099 0.001098901098901099 0.2010989010989011 0.001098901098901099 0.001098901098901099 0.001098901098901099 0.001098901098901099 0.001098901098901099 0.1153846153846154 0.001098901098901099 0.001098901098901099 0.001098901098901099 0.001098901098901099 0.001098901098901099 0.002024291497975709 0.002024291497975709 0.002024291497975709 0.002024291497975709 0.05465587044534413 0.002024291497975709 0.002024291497975709 0.002024291497975709 0.3704453441295547 0.002024291497975709 0.002024291497975709 0.002024291497975709 0.002024291497975709 0.002024291497975709 0.2651821862348178 0.002024291497975709 0.002024291497975709 0.002024291497975709 0.002024291497975709 0.002024291497975709 0.2651821862348178 0.002024291497975709 0.002024291497975709 0.002024291497975709 0.002024291497975709 0.002024291497975709 0.5038461538461538 0.003846153846153846 0.003846153846153846 0.003846153846153846 0.1038461538461539 0.003846153846153846 0.003846153846153846 0.003846153846153846 0.003846153846153846 0.003846153846153846 0.003846153846153846 0.003846153846153846 0.003846153846153846 0.003846153846153846 0.1038461538461539 0.003846153846153846 0.003846153846153846 0.003846153846153846 0.003846153846153846 0.003846153846153846 0.2038461538461538 0.003846153846153846 0.003846153846153846 0.003846153846153846 0.003846153846153846 0.003846153846153846 0.5649038461538463 0.002403846153846154 0.002403846153846154 0.002403846153846154 0.06490384615384617 0.002403846153846154 0.002403846153846154 0.002403846153846154 0.002403846153846154 0.06490384615384617 0.002403846153846154 0.002403846153846154 0.002403846153846154 0.002403846153846154 0.002403846153846154 0.002403846153846154 0.002403846153846154 0.2524038461538462 0.002403846153846154 0.002403846153846154 0.002403846153846154 0.002403846153846154 0.002403846153846154 0.002403846153846154 0.002403846153846154 0.002403846153846154 0.3038461538461539 0.003846153846153847 0.003846153846153847 0.003846153846153847 0.2038461538461539 0.003846153846153847 0.003846153846153847 0.003846153846153847 0.3038461538461539 0.003846153846153847 0.003846153846153847 0.003846153846153847 0.003846153846153847 0.003846153846153847 0.003846153846153847 0.003846153846153847 0.003846153846153847 0.003846153846153847 0.003846153846153847 0.003846153846153847 0.1038461538461539 0.003846153846153847 0.003846153846153847 0.003846153846153847 0.003846153846153847 0.003846153846153847 0.3461538461538461 0.01282051282051282 0.01282051282051282 0.01282051282051282 0.01282051282051282 0.01282051282051282 0.01282051282051282 0.01282051282051282 0.3461538461538461 0.01282051282051282 0.01282051282051282 0.01282051282051282 0.01282051282051282 0.01282051282051282 0.01282051282051282 0.01282051282051282 0.01282051282051282 0.01282051282051282 0.01282051282051282 0.01282051282051282 0.01282051282051282 0.01282051282051282 0.01282051282051282 0.01282051282051282 0.01282051282051282 0.01282051282051282 0.01923076923076923 0.01923076923076923 0.01923076923076923 0.01923076923076923 0.01923076923076923 0.01923076923076923 0.01923076923076923 0.01923076923076923 0.5192307692307692 0.01923076923076923 0.01923076923076923 0.01923076923076923 0.01923076923076923 0.01923076923076923 0.01923076923076923 0.01923076923076923 0.01923076923076923 0.01923076923076923 0.01923076923076923 0.01923076923076923 0.01923076923076923 0.01923076923076923 0.01923076923076923 0.01923076923076923 0.01923076923076923 0.01923076923076923 0.01923076923076923 0.01923076923076923 0.01923076923076923 0.01923076923076923 0.01923076923076923 0.01923076923076923 0.01923076923076923 0.01923076923076923 0.01923076923076923 0.01923076923076923 0.01923076923076923 0.01923076923076923 0.01923076923076923 0.01923076923076923 0.5192307692307692 0.01923076923076923 0.01923076923076923 0.01923076923076923 0.01923076923076923 0.01923076923076923 0.01923076923076923 0.01923076923076923 0.01923076923076923 0.01923076923076923 0.01923076923076923 0.01923076923076923 0.004807692307692309 0.004807692307692309 0.004807692307692309 0.004807692307692309 0.3798076923076924 0.004807692307692309 0.004807692307692309 0.004807692307692309 0.004807692307692309 0.004807692307692309 0.004807692307692309 0.004807692307692309 0.004807692307692309 0.004807692307692309 0.004807692307692309 0.004807692307692309 0.004807692307692309 0.004807692307692309 0.004807692307692309 0.004807692307692309 0.5048076923076924 0.004807692307692309 0.004807692307692309 0.004807692307692309 0.004807692307692309 0.004807692307692309 0.003846153846153846 0.003846153846153846 0.003846153846153846 0.003846153846153846 0.003846153846153846 0.003846153846153846 0.1038461538461539 0.003846153846153846 0.003846153846153846 0.003846153846153846 0.1038461538461539 0.2038461538461538 0.1038461538461539 0.003846153846153846 0.003846153846153846 0.003846153846153846 0.003846153846153846 0.1038461538461539 0.003846153846153846 0.2038461538461538 0.003846153846153846 0.003846153846153846 0.003846153846153846 0.1038461538461539 0.003846153846153846 0.003846153846153846 0.002024291497975708 0.2125506072874493 0.002024291497975708 0.002024291497975708 0.002024291497975708 0.002024291497975708 0.002024291497975708 0.002024291497975708 0.1072874493927125 0.002024291497975708 0.002024291497975708 0.002024291497975708 0.002024291497975708 0.002024291497975708 0.002024291497975708 0.002024291497975708 0.002024291497975708 0.6336032388663967 0.002024291497975708 0.002024291497975708 0.002024291497975708 0.002024291497975708 0.002024291497975708 0.002024291497975708 0.002024291497975708 0.002024291497975708 0.00641025641025641 0.00641025641025641 0.00641025641025641 0.00641025641025641 0.00641025641025641 0.00641025641025641 0.00641025641025641 0.00641025641025641 0.3397435897435897 0.00641025641025641 0.00641025641025641 0.3397435897435897 0.00641025641025641 0.00641025641025641 0.00641025641025641 0.00641025641025641 0.00641025641025641 0.00641025641025641 0.1730769230769231 0.00641025641025641 0.00641025641025641 0.00641025641025641 0.00641025641025641 0.00641025641025641 0.00641025641025641 0.00641025641025641 0.002262443438914027 0.002262443438914027 0.002262443438914027 0.002262443438914027 0.002262443438914027 0.002262443438914027 0.002262443438914027 0.002262443438914027 0.1787330316742081 0.002262443438914027 0.002262443438914027 0.002262443438914027 0.2375565610859728 0.3552036199095022 0.002262443438914027 0.002262443438914027 0.002262443438914027 0.1787330316742081 0.002262443438914027 0.002262443438914027 0.002262443438914027 0.002262443438914027 0.002262443438914027 0.002262443438914027 0.002262443438914027 0.002262443438914027 0.001131221719457014 0.08936651583710406 0.001131221719457014 0.001131221719457014 0.001131221719457014 0.03054298642533937 0.05995475113122171 0.05995475113122171 0.08936651583710406 0.001131221719457014 0.1187782805429864 0.1187782805429864 0.001131221719457014 0.001131221719457014 0.001131221719457014 0.001131221719457014 0.001131221719457014 0.05995475113122171 0.05995475113122171 0.001131221719457014 0.08936651583710406 0.03054298642533937 0.05995475113122171 0.1187782805429864 0.001131221719457014 0.001131221719457014 0.005494505494505495 0.005494505494505495 0.005494505494505495 0.005494505494505495 0.005494505494505495 0.1483516483516484 0.005494505494505495 0.005494505494505495 0.2912087912087912 0.005494505494505495 0.005494505494505495 0.434065934065934 0.005494505494505495 0.005494505494505495 0.005494505494505495 0.005494505494505495 0.005494505494505495 0.005494505494505495 0.005494505494505495 0.005494505494505495 0.005494505494505495 0.005494505494505495 0.005494505494505495 0.005494505494505495 0.005494505494505495 0.005494505494505495 0.05192307692307693 0.001923076923076923 0.001923076923076923 0.001923076923076923 0.001923076923076923 0.001923076923076923 0.2019230769230769 0.001923076923076923 0.1019230769230769 0.001923076923076923 0.001923076923076923 0.001923076923076923 0.001923076923076923 0.4019230769230769 0.001923076923076923 0.001923076923076923 0.001923076923076923 0.2019230769230769 0.001923076923076923 0.001923076923076923 0.001923076923076923 0.001923076923076923 0.001923076923076923 0.001923076923076923 0.001923076923076923 0.001923076923076923 0.002262443438914027 0.002262443438914027 0.3552036199095022 0.002262443438914027 0.002262443438914027 0.002262443438914027 0.002262443438914027 0.002262443438914027 0.002262443438914027 0.002262443438914027 0.002262443438914027 0.002262443438914027 0.002262443438914027 0.002262443438914027 0.002262443438914027 0.06108597285067872 0.002262443438914027 0.2375565610859728 0.002262443438914027 0.2963800904977374 0.002262443438914027 0.002262443438914027 0.002262443438914027 0.002262443438914027 0.002262443438914027 0.002262443438914027 0.003496503496503497 0.09440559440559443 0.003496503496503497 0.1853146853146853 0.003496503496503497 0.003496503496503497 0.003496503496503497 0.003496503496503497 0.003496503496503497 0.003496503496503497 0.003496503496503497 0.09440559440559443 0.1853146853146853 0.003496503496503497 0.003496503496503497 0.003496503496503497 0.003496503496503497 0.09440559440559443 0.003496503496503497 0.003496503496503497 0.003496503496503497 0.003496503496503497 0.09440559440559443 0.1853146853146853 0.003496503496503497 0.003496503496503497 0.01923076923076923 0.01923076923076923 0.01923076923076923 0.01923076923076923 0.01923076923076923 0.01923076923076923 0.01923076923076923 0.01923076923076923 0.01923076923076923 0.01923076923076923 0.01923076923076923 0.01923076923076923 0.01923076923076923 0.01923076923076923 0.01923076923076923 0.01923076923076923 0.01923076923076923 0.5192307692307692 0.01923076923076923 0.01923076923076923 0.01923076923076923 0.01923076923076923 0.01923076923076923 0.01923076923076923 0.01923076923076923 0.01923076923076923 0.003496503496503497 0.003496503496503497 0.6398601398601399 0.003496503496503497 0.003496503496503497 0.003496503496503497 0.003496503496503497 0.003496503496503497 0.003496503496503497 0.003496503496503497 0.003496503496503497 0.003496503496503497 0.003496503496503497 0.09440559440559441 0.003496503496503497 0.003496503496503497 0.003496503496503497 0.1853146853146853 0.003496503496503497 0.003496503496503497 0.003496503496503497 0.003496503496503497 0.003496503496503497 0.003496503496503497 0.003496503496503497 0.003496503496503497 0.00128865850130659 0.001282042800383432 0.001282042800383432 0.1346144940402604 0.001282042800383432 0.001282042800383432 0.03461515561035267 0.001282042800383432 0.1679476068502296 0.001282042800383432 0.2012807196601988 0.1012813812302911 0.001282042800383432 0.001282042800383432 0.001282042800383432 0.001282042800383432 0.001282042800383432 0.3012800580901065 0.001282042800383432 0.001282042800383432 0.03461515561035267 0.001282042800383432 0.001282042800383432 0.001282042800383432 0.001282042800383432 0.001282042800383432 0.007692307692307693 0.007692307692307693 0.007692307692307693 0.007692307692307693 0.007692307692307693 0.007692307692307693 0.007692307692307693 0.007692307692307693 0.2076923076923077 0.007692307692307693 0.007692307692307693 0.007692307692307693 0.2076923076923077 0.007692307692307693 0.007692307692307693 0.007692307692307693 0.007692307692307693 0.007692307692307693 0.007692307692307693 0.2076923076923077 0.2076923076923077 0.007692307692307693 0.007692307692307693 0.007692307692307693 0.007692307692307693 0.007692307692307693 0.002136752136752137 0.2799145299145299 0.002136752136752137 0.002136752136752137 0.002136752136752137 0.002136752136752137 0.002136752136752137 0.002136752136752137 0.4465811965811965 0.002136752136752137 0.002136752136752137 0.002136752136752137 0.002136752136752137 0.0576923076923077 0.002136752136752137 0.002136752136752137 0.002136752136752137 0.1688034188034188 0.002136752136752137 0.002136752136752137 0.002136752136752137 0.002136752136752137 0.002136752136752137 0.002136752136752137 0.002136752136752137 0.002136752136752137 0.007692307692307693 0.2076923076923077 0.007692307692307693 0.007692307692307693 0.007692307692307693 0.007692307692307693 0.007692307692307693 0.007692307692307693 0.007692307692307693 0.007692307692307693 0.007692307692307693 0.2076923076923077 0.007692307692307693 0.2076923076923077 0.007692307692307693 0.2076923076923077 0.007692307692307693 0.007692307692307693 0.007692307692307693 0.007692307692307693 0.007692307692307693 0.007692307692307693 0.007692307692307693 0.007692307692307693 0.007692307692307693 0.007692307692307693 0.005494505494505495 0.005494505494505495 0.005494505494505495 0.005494505494505495 0.005494505494505495 0.005494505494505495 0.005494505494505495 0.005494505494505495 0.005494505494505495 0.005494505494505495 0.005494505494505495 0.005494505494505495 0.1483516483516484 0.005494505494505495 0.005494505494505495 0.005494505494505495 0.005494505494505495 0.1483516483516484 0.434065934065934 0.005494505494505495 0.005494505494505495 0.005494505494505495 0.005494505494505495 0.1483516483516484 0.005494505494505495 0.005494505494505495 0.03846153846153846 0.03846153846153846 0.03846153846153846 0.03846153846153846 0.03846153846153846 0.03846153846153846 0.03846153846153846 0.03846153846153846 0.03846153846153846 0.03846153846153846 0.03846153846153846 0.03846153846153846 0.03846153846153846 0.03846153846153846 0.03846153846153846 0.03846153846153846 0.03846153846153846 0.03846153846153846 0.03846153846153846 0.03846153846153846 0.03846153846153846 0.03846153846153846 0.03846153846153846 0.03846153846153846 0.03846153846153846 0.03846153846153846 0.07417582417582419 0.002747252747252748 0.002747252747252748 0.002747252747252748 0.002747252747252748 0.002747252747252748 0.002747252747252748 0.2884615384615385 0.002747252747252748 0.002747252747252748 0.002747252747252748 0.002747252747252748 0.002747252747252748 0.002747252747252748 0.002747252747252748 0.002747252747252748 0.002747252747252748 0.1456043956043956 0.002747252747252748 0.002747252747252748 0.3598901098901099 0.002747252747252748 0.002747252747252748 0.002747252747252748 0.07417582417582419 0.002747252747252748 0.001923076923076923 0.001923076923076923 0.001923076923076923 0.001923076923076923 0.001923076923076923 0.001923076923076923 0.001923076923076923 0.001923076923076923 0.301923076923077 0.001923076923076923 0.001923076923076923 0.001923076923076923 0.1519230769230769 0.001923076923076923 0.05192307692307693 0.001923076923076923 0.001923076923076923 0.2019230769230769 0.2519230769230769 0.001923076923076923 0.001923076923076923 0.001923076923076923 0.001923076923076923 0.001923076923076923 0.001923076923076923 0.001923076923076923 0.002262443438914027 0.002262443438914027 0.002262443438914027 0.002262443438914027 0.002262443438914027 0.002262443438914027 0.002262443438914027 0.002262443438914027 0.2375565610859728 0.002262443438914027 0.002262443438914027 0.06108597285067874 0.002262443438914027 0.1787330316742081 0.002262443438914027 0.002262443438914027 0.002262443438914027 0.002262443438914027 0.1787330316742081 0.06108597285067874 0.06108597285067874 0.002262443438914027 0.002262443438914027 0.1787330316742081 0.002262443438914027 0.002262443438914027 0.01282051282051282 0.01282051282051282 0.01282051282051282 0.3461538461538461 0.01282051282051282 0.01282051282051282 0.01282051282051282 0.01282051282051282 0.01282051282051282 0.01282051282051282 0.01282051282051282 0.01282051282051282 0.01282051282051282 0.01282051282051282 0.01282051282051282 0.01282051282051282 0.01282051282051282 0.01282051282051282 0.01282051282051282 0.3461538461538461 0.01282051282051282 0.01282051282051282 0.01282051282051282 0.01282051282051282 0.01282051282051282 0.01282051282051282 0.01923076923076923 0.01923076923076923 0.01923076923076923 0.01923076923076923 0.01923076923076923 0.01923076923076923 0.01923076923076923 0.01923076923076923 0.01923076923076923 0.01923076923076923 0.01923076923076923 0.01923076923076923 0.01923076923076923 0.01923076923076923 0.01923076923076923 0.01923076923076923 0.01923076923076923 0.5192307692307692 0.01923076923076923 0.01923076923076923 0.01923076923076923 0.01923076923076923 0.01923076923076923 0.01923076923076923 0.01923076923076923 0.01923076923076923 0.01282051282051282 0.01282051282051282 0.01282051282051282 0.01282051282051282 0.01282051282051282 0.01282051282051282 0.01282051282051282 0.01282051282051282 0.01282051282051282 0.01282051282051282 0.01282051282051282 0.01282051282051282 0.01282051282051282 0.01282051282051282 0.01282051282051282 0.01282051282051282 0.01282051282051282 0.3461538461538461 0.01282051282051282 0.3461538461538461 0.01282051282051282 0.01282051282051282 0.01282051282051282 0.01282051282051282 0.01282051282051282 0.01282051282051282 0.03846153846153846 0.03846153846153846 0.03846153846153846 0.03846153846153846 0.03846153846153846 0.03846153846153846 0.03846153846153846 0.03846153846153846 0.03846153846153846 0.03846153846153846 0.03846153846153846 0.03846153846153846 0.03846153846153846 0.03846153846153846 0.03846153846153846 0.03846153846153846 0.03846153846153846 0.03846153846153846 0.03846153846153846 0.03846153846153846 0.03846153846153846 0.03846153846153846 0.03846153846153846 0.03846153846153846 0.03846153846153846 0.03846153846153846 0.01923076923076923 0.01923076923076923 0.01923076923076923 0.01923076923076923 0.01923076923076923 0.01923076923076923 0.01923076923076923 0.01923076923076923 0.01923076923076923 0.01923076923076923 0.01923076923076923 0.01923076923076923 0.01923076923076923 0.01923076923076923 0.01923076923076923 0.01923076923076923 0.01923076923076923 0.01923076923076923 0.01923076923076923 0.5192307692307692 0.01923076923076923 0.01923076923076923 0.01923076923076923 0.01923076923076923 0.01923076923076923 0.01923076923076923 0.004807692307692308 0.004807692307692308 0.004807692307692308 0.004807692307692308 0.004807692307692308 0.004807692307692308 0.004807692307692308 0.004807692307692308 0.004807692307692308 0.004807692307692308 0.1298076923076923 0.004807692307692308 0.004807692307692308 0.1298076923076923 0.004807692307692308 0.004807692307692308 0.004807692307692308 0.5048076923076923 0.004807692307692308 0.004807692307692308 0.004807692307692308 0.004807692307692308 0.004807692307692308 0.004807692307692308 0.004807692307692308 0.1298076923076923 0.001326259946949602 0.001326259946949602 0.001326259946949602 0.001326259946949602 0.001326259946949602 0.001326259946949602 0.001326259946949602 0.001326259946949602 0.03580901856763925 0.001326259946949602 0.001326259946949602 0.5530503978779839 0.001326259946949602 0.001326259946949602 0.001326259946949602 0.001326259946949602 0.001326259946949602 0.3806366047745356 0.001326259946949602 0.001326259946949602 0.001326259946949602 0.001326259946949602 0.001326259946949602 0.001326259946949602 0.001326259946949602 0.001326259946949602 0.3397435897435898 0.006410256410256411 0.006410256410256411 0.006410256410256411 0.1730769230769231 0.006410256410256411 0.006410256410256411 0.006410256410256411 0.3397435897435898 0.006410256410256411 0.006410256410256411 0.006410256410256411 0.006410256410256411 0.006410256410256411 0.006410256410256411 0.006410256410256411 0.006410256410256411 0.006410256410256411 0.006410256410256411 0.006410256410256411 0.006410256410256411 0.006410256410256411 0.006410256410256411 0.006410256410256411 0.006410256410256411 0.006410256410256411 0.2375565610859728 0.002262443438914027 0.002262443438914027 0.002262443438914027 0.1787330316742081 0.002262443438914027 0.002262443438914027 0.002262443438914027 0.4140271493212669 0.002262443438914027 0.002262443438914027 0.002262443438914027 0.002262443438914027 0.002262443438914027 0.06108597285067874 0.002262443438914027 0.002262443438914027 0.002262443438914027 0.002262443438914027 0.002262443438914027 0.06108597285067874 0.002262443438914027 0.002262443438914027 0.002262443438914027 0.002262443438914027 0.002262443438914027 0.4198717948717949 0.003205128205128205 0.003205128205128205 0.003205128205128205 0.1698717948717949 0.003205128205128205 0.003205128205128205 0.003205128205128205 0.1698717948717949 0.003205128205128205 0.003205128205128205 0.003205128205128205 0.003205128205128205 0.003205128205128205 0.003205128205128205 0.003205128205128205 0.003205128205128205 0.003205128205128205 0.003205128205128205 0.003205128205128205 0.1698717948717949 0.003205128205128205 0.003205128205128205 0.003205128205128205 0.003205128205128205 0.003205128205128205 0.001131221719457014 0.001131221719457014 0.001131221719457014 0.001131221719457014 0.03054298642533937 0.001131221719457014 0.001131221719457014 0.001131221719457014 0.2070135746606335 0.05995475113122171 0.001131221719457014 0.3246606334841629 0.001131221719457014 0.001131221719457014 0.001131221719457014 0.001131221719457014 0.001131221719457014 0.3540723981900452 0.001131221719457014 0.001131221719457014 0.001131221719457014 0.001131221719457014 0.001131221719457014 0.001131221719457014 0.001131221719457014 0.001131221719457014 0.01923076923076923 0.01923076923076923 0.01923076923076923 0.01923076923076923 0.01923076923076923 0.01923076923076923 0.01923076923076923 0.01923076923076923 0.01923076923076923 0.01923076923076923 0.01923076923076923 0.01923076923076923 0.01923076923076923 0.01923076923076923 0.01923076923076923 0.01923076923076923 0.01923076923076923 0.01923076923076923 0.01923076923076923 0.01923076923076923 0.5192307692307692 0.01923076923076923 0.01923076923076923 0.01923076923076923 0.01923076923076923 0.01923076923076923 0.002747252747252748 0.002747252747252748 0.002747252747252748 0.002747252747252748 0.3598901098901099 0.002747252747252748 0.002747252747252748 0.002747252747252748 0.2884615384615385 0.002747252747252748 0.002747252747252748 0.002747252747252748 0.002747252747252748 0.002747252747252748 0.002747252747252748 0.002747252747252748 0.002747252747252748 0.002747252747252748 0.002747252747252748 0.002747252747252748 0.2884615384615385 0.002747252747252748 0.002747252747252748 0.002747252747252748 0.002747252747252748 0.002747252747252748 0.2963800904977376 0.002262443438914027 0.002262443438914027 0.002262443438914027 0.4140271493212669 0.002262443438914027 0.002262443438914027 0.002262443438914027 0.002262443438914027 0.002262443438914027 0.002262443438914027 0.002262443438914027 0.002262443438914027 0.002262443438914027 0.1199095022624434 0.002262443438914027 0.002262443438914027 0.002262443438914027 0.002262443438914027 0.002262443438914027 0.1199095022624434 0.002262443438914027 0.002262443438914027 0.002262443438914027 0.002262443438914027 0.002262443438914027 0.02732793522267206 0.001012145748987854 0.001012145748987854 0.001012145748987854 0.4483805668016193 0.001012145748987854 0.001012145748987854 0.001012145748987854 0.001012145748987854 0.001012145748987854 0.001012145748987854 0.3431174089068825 0.001012145748987854 0.001012145748987854 0.001012145748987854 0.001012145748987854 0.001012145748987854 0.1589068825910931 0.001012145748987854 0.001012145748987854 0.001012145748987854 0.001012145748987854 0.001012145748987854 0.001012145748987854 0.001012145748987854 0.001012145748987854 0.03846153846153846 0.03846153846153846 0.03846153846153846 0.03846153846153846 0.03846153846153846 0.03846153846153846 0.03846153846153846 0.03846153846153846 0.03846153846153846 0.03846153846153846 0.03846153846153846 0.03846153846153846 0.03846153846153846 0.03846153846153846 0.03846153846153846 0.03846153846153846 0.03846153846153846 0.03846153846153846 0.03846153846153846 0.03846153846153846 0.03846153846153846 0.03846153846153846 0.03846153846153846 0.03846153846153846 0.03846153846153846 0.03846153846153846 0.7307692307692308 0.003496503496503497 0.003496503496503497 0.003496503496503497 0.003496503496503497 0.003496503496503497 0.003496503496503497 0.003496503496503497 0.003496503496503497 0.003496503496503497 0.003496503496503497 0.003496503496503497 0.003496503496503497 0.003496503496503497 0.1853146853146853 0.003496503496503497 0.003496503496503497 0.003496503496503497 0.003496503496503497 0.003496503496503497 0.003496503496503497 0.003496503496503497 0.003496503496503497 0.003496503496503497 0.003496503496503497 0.003496503496503497 0.2931037091327347 0.001237997006772794 0.001237997006772794 0.001237997006772794 0.2265534522394212 0.001237997006772794 0.001237997006772794 0.001237997006772794 0.2587413744155139 0.001237997006772794 0.001237997006772794 0.001237997006772794 0.001237997006772794 0.001237997006772794 0.1943655300633286 0.001237997006772794 0.001237997006772794 0.001237997006772794 0.001237997006772794 0.001237997006772794 0.001237997006772794 0.001237997006772794 0.001237997006772794 0.001237997006772794 0.001237997006772794 0.001237997006772794 0.2076923076923078 0.007692307692307694 0.007692307692307694 0.007692307692307694 0.4076923076923077 0.007692307692307694 0.007692307692307694 0.007692307692307694 0.007692307692307694 0.007692307692307694 0.007692307692307694 0.007692307692307694 0.007692307692307694 0.007692307692307694 0.007692307692307694 0.007692307692307694 0.007692307692307694 0.007692307692307694 0.007692307692307694 0.007692307692307694 0.2076923076923078 0.007692307692307694 0.007692307692307694 0.007692307692307694 0.007692307692307694 0.007692307692307694 0.1955128205128205 0.001068376068376068 0.001068376068376068 0.001068376068376068 0.1677350427350427 0.001068376068376068 0.001068376068376068 0.001068376068376068 0.251068376068376 0.001068376068376068 0.001068376068376068 0.001068376068376068 0.001068376068376068 0.001068376068376068 0.08440170940170938 0.001068376068376068 0.001068376068376068 0.001068376068376068 0.001068376068376068 0.001068376068376068 0.2788461538461538 0.001068376068376068 0.001068376068376068 0.001068376068376068 0.001068376068376068 0.001068376068376068 0.001479289940828402 0.001479289940828402 0.001479289940828402 0.001479289940828402 0.001479289940828402 0.001479289940828402 0.001479289940828402 0.001479289940828402 0.001479289940828402 0.03994082840236685 0.001479289940828402 0.6553254437869821 0.001479289940828402 0.001479289940828402 0.001479289940828402 0.001479289940828402 0.001479289940828402 0.2707100591715976 0.001479289940828402 0.001479289940828402 0.001479289940828402 0.001479289940828402 0.001479289940828402 0.001479289940828402 0.001479289940828402 0.001479289940828402 0.009615384615384616 0.009615384615384616 0.009615384615384616 0.009615384615384616 0.009615384615384616 0.009615384615384616 0.009615384615384616 0.009615384615384616 0.2596153846153846 0.009615384615384616 0.009615384615384616 0.009615384615384616 0.009615384615384616 0.009615384615384616 0.5096153846153846 0.009615384615384616 0.009615384615384616 0.009615384615384616 0.009615384615384616 0.009615384615384616 0.009615384615384616 0.009615384615384616 0.009615384615384616 0.009615384615384616 0.009615384615384616 0.009615384615384616 0.03846153846153846 0.03846153846153846 0.03846153846153846 0.03846153846153846 0.03846153846153846 0.03846153846153846 0.03846153846153846 0.03846153846153846 0.03846153846153846 0.03846153846153846 0.03846153846153846 0.03846153846153846 0.03846153846153846 0.03846153846153846 0.03846153846153846 0.03846153846153846 0.03846153846153846 0.03846153846153846 0.03846153846153846 0.03846153846153846 0.03846153846153846 0.03846153846153846 0.03846153846153846 0.03846153846153846 0.03846153846153846 0.03846153846153846 0.2296703296703296 0.001098901098901099 0.001098901098901099 0.001098901098901099 0.1153846153846154 0.001098901098901099 0.001098901098901099 0.001098901098901099 0.2010989010989011 0.001098901098901099 0.001098901098901099 0.001098901098901099 0.001098901098901099 0.001098901098901099 0.2868131868131867 0.001098901098901099 0.001098901098901099 0.001098901098901099 0.001098901098901099 0.001098901098901099 0.1439560439560439 0.001098901098901099 0.001098901098901099 0.001098901098901099 0.001098901098901099 0.001098901098901099 0.4245562130177514 0.001479289940828402 0.001479289940828402 0.001479289940828402 0.1937869822485207 0.001479289940828402 0.001479289940828402 0.001479289940828402 0.03994082840236686 0.001479289940828402 0.001479289940828402 0.001479289940828402 0.001479289940828402 0.001479289940828402 0.07840236686390531 0.001479289940828402 0.001479289940828402 0.001479289940828402 0.001479289940828402 0.001479289940828402 0.2322485207100591 0.001479289940828402 0.001479289940828402 0.001479289940828402 0.001479289940828402 0.001479289940828402 0.1381118881118881 0.001748251748251748 0.001748251748251748 0.001748251748251748 0.3653846153846154 0.001748251748251748 0.001748251748251748 0.001748251748251748 0.1835664335664336 0.001748251748251748 0.001748251748251748 0.001748251748251748 0.001748251748251748 0.001748251748251748 0.1835664335664336 0.001748251748251748 0.001748251748251748 0.001748251748251748 0.001748251748251748 0.001748251748251748 0.09265734265734266 0.001748251748251748 0.001748251748251748 0.001748251748251748 0.001748251748251748 0.001748251748251748 0.2606837606837606 0.001424501424501425 0.001424501424501425 0.001424501424501425 0.07549857549857548 0.001424501424501425 0.001424501424501425 0.001424501424501425 0.001424501424501425 0.001424501424501425 0.001424501424501425 0.4458689458689458 0.001424501424501425 0.001424501424501425 0.1125356125356125 0.001424501424501425 0.001424501424501425 0.07549857549857548 0.001424501424501425 0.001424501424501425 0.001424501424501425 0.001424501424501425 0.001424501424501425 0.001424501424501425 0.001424501424501425 0.001424501424501425 0.6794871794871796 0.01282051282051283 0.01282051282051283 0.01282051282051283 0.01282051282051283 0.01282051282051283 0.01282051282051283 0.01282051282051283 0.01282051282051283 0.01282051282051283 0.01282051282051283 0.01282051282051283 0.01282051282051283 0.01282051282051283 0.01282051282051283 0.01282051282051283 0.01282051282051283 0.01282051282051283 0.01282051282051283 0.01282051282051283 0.01282051282051283 0.01282051282051283 0.01282051282051283 0.01282051282051283 0.01282051282051283 0.01282051282051283 0.03846153846153846 0.03846153846153846 0.03846153846153846 0.03846153846153846 0.03846153846153846 0.03846153846153846 0.03846153846153846 0.03846153846153846 0.03846153846153846 0.03846153846153846 0.03846153846153846 0.03846153846153846 0.03846153846153846 0.03846153846153846 0.03846153846153846 0.03846153846153846 0.03846153846153846 0.03846153846153846 0.03846153846153846 0.03846153846153846 0.03846153846153846 0.03846153846153846 0.03846153846153846 0.03846153846153846 0.03846153846153846 0.03846153846153846 0.2025641025641026 0.002564102564102565 0.002564102564102565 0.002564102564102565 0.1358974358974359 0.002564102564102565 0.002564102564102565 0.002564102564102565 0.4692307692307693 0.002564102564102565 0.002564102564102565 0.002564102564102565 0.002564102564102565 0.002564102564102565 0.1358974358974359 0.002564102564102565 0.002564102564102565 0.002564102564102565 0.002564102564102565 0.002564102564102565 0.002564102564102565 0.002564102564102565 0.002564102564102565 0.002564102564102565 0.002564102564102565 0.002564102564102565 0.01282051282051282 0.01282051282051282 0.01282051282051282 0.01282051282051282 0.01282051282051282 0.01282051282051282 0.01282051282051282 0.01282051282051282 0.01282051282051282 0.01282051282051282 0.01282051282051282 0.3461538461538461 0.01282051282051282 0.01282051282051282 0.3461538461538461 0.01282051282051282 0.01282051282051282 0.01282051282051282 0.01282051282051282 0.01282051282051282 0.01282051282051282 0.01282051282051282 0.01282051282051282 0.01282051282051282 0.01282051282051282 0.01282051282051282 0.1483516483516484 0.005494505494505496 0.005494505494505496 0.005494505494505496 0.2912087912087912 0.005494505494505496 0.005494505494505496 0.005494505494505496 0.005494505494505496 0.005494505494505496 0.005494505494505496 0.005494505494505496 0.005494505494505496 0.005494505494505496 0.005494505494505496 0.005494505494505496 0.005494505494505496 0.005494505494505496 0.005494505494505496 0.005494505494505496 0.4340659340659341 0.005494505494505496 0.005494505494505496 0.005494505494505496 0.005494505494505496 0.005494505494505496 0.0008547008547008547 0.0008547008547008547 0.0008547008547008547 0.0008547008547008547 0.0008547008547008547 0.0008547008547008547 0.0008547008547008547 0.0008547008547008547 0.02307692307692307 0.0008547008547008547 0.0008547008547008547 0.1564102564102564 0.0008547008547008547 0.0675213675213675 0.04529914529914529 0.0008547008547008547 0.0008547008547008547 0.6452991452991452 0.0008547008547008547 0.0008547008547008547 0.04529914529914529 0.0008547008547008547 0.0008547008547008547 0.0008547008547008547 0.0008547008547008547 0.0008547008547008547 0.3671328671328672 0.003496503496503497 0.003496503496503497 0.003496503496503497 0.4580419580419581 0.003496503496503497 0.003496503496503497 0.003496503496503497 0.09440559440559443 0.003496503496503497 0.003496503496503497 0.003496503496503497 0.003496503496503497 0.003496503496503497 0.003496503496503497 0.003496503496503497 0.003496503496503497 0.003496503496503497 0.003496503496503497 0.003496503496503497 0.003496503496503497 0.003496503496503497 0.003496503496503497 0.003496503496503497 0.003496503496503497 0.003496503496503497 0.1298076923076923 0.004807692307692309 0.004807692307692309 0.004807692307692309 0.1298076923076923 0.004807692307692309 0.004807692307692309 0.004807692307692309 0.2548076923076923 0.004807692307692309 0.004807692307692309 0.004807692307692309 0.004807692307692309 0.004807692307692309 0.004807692307692309 0.004807692307692309 0.004807692307692309 0.004807692307692309 0.004807692307692309 0.004807692307692309 0.3798076923076924 0.004807692307692309 0.004807692307692309 0.004807692307692309 0.004807692307692309 0.004807692307692309 0.1483516483516484 0.005494505494505495 0.005494505494505495 0.005494505494505495 0.005494505494505495 0.005494505494505495 0.005494505494505495 0.005494505494505495 0.005494505494505495 0.005494505494505495 0.005494505494505495 0.005494505494505495 0.005494505494505495 0.005494505494505495 0.7197802197802197 0.005494505494505495 0.005494505494505495 0.005494505494505495 0.005494505494505495 0.005494505494505495 0.005494505494505495 0.005494505494505495 0.005494505494505495 0.005494505494505495 0.005494505494505495 0.005494505494505495 0.002024291497975709 0.002024291497975709 0.002024291497975709 0.002024291497975709 0.1072874493927125 0.002024291497975709 0.002024291497975709 0.002024291497975709 0.2651821862348178 0.002024291497975709 0.002024291497975709 0.159919028340081 0.002024291497975709 0.05465587044534413 0.002024291497975709 0.002024291497975709 0.002024291497975709 0.3704453441295547 0.002024291497975709 0.002024291497975709 0.002024291497975709 0.002024291497975709 0.002024291497975709 0.002024291497975709 0.002024291497975709 0.002024291497975709 0.3397435897435898 0.006410256410256411 0.006410256410256411 0.006410256410256411 0.006410256410256411 0.006410256410256411 0.006410256410256411 0.006410256410256411 0.3397435897435898 0.006410256410256411 0.006410256410256411 0.006410256410256411 0.006410256410256411 0.006410256410256411 0.1730769230769231 0.006410256410256411 0.006410256410256411 0.006410256410256411 0.006410256410256411 0.006410256410256411 0.006410256410256411 0.006410256410256411 0.006410256410256411 0.006410256410256411 0.006410256410256411 0.006410256410256411 0.5038461538461539 0.003846153846153847 0.003846153846153847 0.003846153846153847 0.1038461538461539 0.003846153846153847 0.003846153846153847 0.003846153846153847 0.2038461538461539 0.003846153846153847 0.003846153846153847 0.003846153846153847 0.003846153846153847 0.003846153846153847 0.003846153846153847 0.003846153846153847 0.003846153846153847 0.003846153846153847 0.003846153846153847 0.003846153846153847 0.1038461538461539 0.003846153846153847 0.003846153846153847 0.003846153846153847 0.003846153846153847 0.003846153846153847 0.004273504273504275 0.004273504273504275 0.004273504273504275 0.004273504273504275 0.8931623931623933 0.004273504273504275 0.004273504273504275 0.004273504273504275 0.004273504273504275 0.004273504273504275 0.004273504273504275 0.004273504273504275 0.004273504273504275 0.004273504273504275 0.004273504273504275 0.004273504273504275 0.004273504273504275 0.004273504273504275 0.004273504273504275 0.004273504273504275 0.004273504273504275 0.004273504273504275 0.004273504273504275 0.004273504273504275 0.004273504273504275 0.004273504273504275 0.001326259946949602 0.001326259946949602 0.001326259946949602 0.001326259946949602 0.4496021220159151 0.001326259946949602 0.001326259946949602 0.001326259946949602 0.001326259946949602 0.001326259946949602 0.001326259946949602 0.1737400530503979 0.001326259946949602 0.001326259946949602 0.001326259946949602 0.001326259946949602 0.001326259946949602 0.3116710875331565 0.001326259946949602 0.001326259946949602 0.03580901856763926 0.001326259946949602 0.001326259946949602 0.001326259946949602 0.001326259946949602 0.001326259946949602 0.01923076923076923 0.01923076923076923 0.01923076923076923 0.01923076923076923 0.01923076923076923 0.01923076923076923 0.01923076923076923 0.01923076923076923 0.01923076923076923 0.01923076923076923 0.01923076923076923 0.01923076923076923 0.01923076923076923 0.01923076923076923 0.5192307692307692 0.01923076923076923 0.01923076923076923 0.01923076923076923 0.01923076923076923 0.01923076923076923 0.01923076923076923 0.01923076923076923 0.01923076923076923 0.01923076923076923 0.01923076923076923 0.01923076923076923 0.01282051282051282 0.01282051282051282 0.01282051282051282 0.01282051282051282 0.01282051282051282 0.01282051282051282 0.01282051282051282 0.01282051282051282 0.01282051282051282 0.01282051282051282 0.01282051282051282 0.01282051282051282 0.01282051282051282 0.01282051282051282 0.6794871794871795 0.01282051282051282 0.01282051282051282 0.01282051282051282 0.01282051282051282 0.01282051282051282 0.01282051282051282 0.01282051282051282 0.01282051282051282 0.01282051282051282 0.01282051282051282 0.01282051282051282 0.153425533581294 0.001164476570039485 0.001164476570039485 0.001164476570039485 0.4553103388854387 0.001164476570039485 0.001164476570039485 0.001164476570039485 0.1525464306751726 0.001164476570039485 0.001164476570039485 0.001164476570039485 0.001164476570039485 0.001164476570039485 0.1525464306751726 0.001164476570039485 0.001164476570039485 0.001164476570039485 0.001164476570039485 0.001164476570039485 0.06171725821209271 0.001164476570039485 0.001164476570039485 0.001164476570039485 0.001164476570039485 0.001164476570039485 0.5414201183431953 0.002958579881656805 0.002958579881656805 0.002958579881656805 0.1568047337278106 0.002958579881656805 0.002958579881656805 0.002958579881656805 0.07988165680473373 0.002958579881656805 0.002958579881656805 0.002958579881656805 0.002958579881656805 0.002958579881656805 0.002958579881656805 0.002958579881656805 0.002958579881656805 0.002958579881656805 0.002958579881656805 0.002958579881656805 0.1568047337278106 0.002958579881656805 0.002958579881656805 0.002958579881656805 0.002958579881656805 0.002958579881656805 0.1835664335664335 0.001748251748251748 0.001748251748251748 0.001748251748251748 0.4108391608391608 0.001748251748251748 0.001748251748251748 0.001748251748251748 0.1381118881118881 0.001748251748251748 0.001748251748251748 0.001748251748251748 0.001748251748251748 0.001748251748251748 0.1835664335664335 0.001748251748251748 0.001748251748251748 0.001748251748251748 0.001748251748251748 0.001748251748251748 0.0472027972027972 0.001748251748251748 0.001748251748251748 0.001748251748251748 0.001748251748251748 0.001748251748251748 0.002747252747252748 0.002747252747252748 0.002747252747252748 0.002747252747252748 0.002747252747252748 0.002747252747252748 0.002747252747252748 0.002747252747252748 0.002747252747252748 0.002747252747252748 0.002747252747252748 0.2884615384615385 0.002747252747252748 0.1456043956043956 0.07417582417582419 0.002747252747252748 0.002747252747252748 0.4313186813186814 0.002747252747252748 0.002747252747252748 0.002747252747252748 0.002747252747252748 0.002747252747252748 0.002747252747252748 0.002747252747252748 0.002747252747252748 0.006410256410256411 0.006410256410256411 0.006410256410256411 0.006410256410256411 0.006410256410256411 0.006410256410256411 0.006410256410256411 0.006410256410256411 0.3397435897435898 0.006410256410256411 0.006410256410256411 0.006410256410256411 0.006410256410256411 0.006410256410256411 0.006410256410256411 0.006410256410256411 0.006410256410256411 0.006410256410256411 0.006410256410256411 0.006410256410256411 0.5064102564102565 0.006410256410256411 0.006410256410256411 0.006410256410256411 0.006410256410256411 0.006410256410256411 0.03846153846153846 0.03846153846153846 0.03846153846153846 0.03846153846153846 0.03846153846153846 0.03846153846153846 0.03846153846153846 0.03846153846153846 0.03846153846153846 0.03846153846153846 0.03846153846153846 0.03846153846153846 0.03846153846153846 0.03846153846153846 0.03846153846153846 0.03846153846153846 0.03846153846153846 0.03846153846153846 0.03846153846153846 0.03846153846153846 0.03846153846153846 0.03846153846153846 0.03846153846153846 0.03846153846153846 0.03846153846153846 0.03846153846153846 0.3009615384615384 0.0009615384615384614 0.0009615384615384614 0.0009615384615384614 0.2759615384615384 0.0009615384615384614 0.0009615384615384614 0.0009615384615384614 0.1259615384615384 0.0009615384615384614 0.0009615384615384614 0.0009615384615384614 0.0009615384615384614 0.0009615384615384614 0.07596153846153844 0.0009615384615384614 0.0009615384615384614 0.0009615384615384614 0.0009615384615384614 0.0009615384615384614 0.1759615384615384 0.0009615384615384614 0.0009615384615384614 0.0009615384615384614 0.02596153846153846 0.0009615384615384614 0.4519230769230769 0.001923076923076923 0.001923076923076923 0.001923076923076923 0.1019230769230769 0.001923076923076923 0.001923076923076923 0.001923076923076923 0.1519230769230769 0.001923076923076923 0.001923076923076923 0.001923076923076923 0.001923076923076923 0.001923076923076923 0.1519230769230769 0.001923076923076923 0.001923076923076923 0.001923076923076923 0.001923076923076923 0.001923076923076923 0.1019230769230769 0.001923076923076923 0.001923076923076923 0.001923076923076923 0.001923076923076923 0.001923076923076923 0.2125506072874494 0.002024291497975709 0.002024291497975709 0.002024291497975709 0.159919028340081 0.002024291497975709 0.002024291497975709 0.002024291497975709 0.05465587044534413 0.002024291497975709 0.002024291497975709 0.002024291497975709 0.002024291497975709 0.002024291497975709 0.2651821862348178 0.002024291497975709 0.002024291497975709 0.002024291497975709 0.002024291497975709 0.002024291497975709 0.2651821862348178 0.002024291497975709 0.002024291497975709 0.002024291497975709 0.002024291497975709 0.002024291497975709 0.4496021220159151 0.001326259946949602 0.001326259946949602 0.001326259946949602 0.07029177718832891 0.001326259946949602 0.001326259946949602 0.001326259946949602 0.001326259946949602 0.001326259946949602 0.001326259946949602 0.03580901856763926 0.001326259946949602 0.001326259946949602 0.03580901856763926 0.001326259946949602 0.001326259946949602 0.3806366047745358 0.001326259946949602 0.001326259946949602 0.001326259946949602 0.001326259946949602 0.001326259946949602 0.001326259946949602 0.001326259946949602 0.001326259946949602 0.03846153846153846 0.03846153846153846 0.03846153846153846 0.03846153846153846 0.03846153846153846 0.03846153846153846 0.03846153846153846 0.03846153846153846 0.03846153846153846 0.03846153846153846 0.03846153846153846 0.03846153846153846 0.03846153846153846 0.03846153846153846 0.03846153846153846 0.03846153846153846 0.03846153846153846 0.03846153846153846 0.03846153846153846 0.03846153846153846 0.03846153846153846 0.03846153846153846 0.03846153846153846 0.03846153846153846 0.03846153846153846 0.03846153846153846 0.03846153846153846 0.03846153846153846 0.03846153846153846 0.03846153846153846 0.03846153846153846 0.03846153846153846 0.03846153846153846 0.03846153846153846 0.03846153846153846 0.03846153846153846 0.03846153846153846 0.03846153846153846 0.03846153846153846 0.03846153846153846 0.03846153846153846 0.03846153846153846 0.03846153846153846 0.03846153846153846 0.03846153846153846 0.03846153846153846 0.03846153846153846 0.03846153846153846 0.03846153846153846 0.03846153846153846 0.03846153846153846 0.03846153846153846 0.03846153846153846 0.03846153846153846 0.03846153846153846 0.03846153846153846 0.03846153846153846 0.03846153846153846 0.03846153846153846 0.03846153846153846 0.03846153846153846 0.03846153846153846 0.03846153846153846 0.03846153846153846 0.03846153846153846 0.03846153846153846 0.03846153846153846 0.03846153846153846 0.03846153846153846 0.03846153846153846 0.03846153846153846 0.03846153846153846 0.03846153846153846 0.03846153846153846 0.03846153846153846 0.03846153846153846 0.03846153846153846 0.03846153846153846 0.03846153846153846 0.03846153846153846 0.03846153846153846 0.03846153846153846 0.03846153846153846 0.03846153846153846 0.03846153846153846 0.03846153846153846 0.03846153846153846 0.03846153846153846 0.03846153846153846 0.03846153846153846 0.03846153846153846 0.03846153846153846 0.03846153846153846 0.03846153846153846 0.03846153846153846 0.03846153846153846 0.03846153846153846 0.03846153846153846 0.03846153846153846 0.03846153846153846 0.03846153846153846 0.03846153846153846 0.03846153846153846 0.03846153846153846 0.5192307692307691 0.01923076923076922 0.01923076923076922 0.01923076923076922 0.01923076923076922 0.01923076923076922 0.01923076923076922 0.01923076923076922 0.01923076923076922 0.01923076923076922 0.01923076923076922 0.01923076923076922 0.01923076923076922 